svm_type c_svc
kernel_type rbf
gamma 0.0625
nr_class 10
total_sv 420
rho -0.205226 -0.225209 -0.273245 -0.0938233 -0.249111 -0.18373 -0.283548 -0.172906 -0.258099 0.00991007 -0.0269898 0.097947 0.032295 0.0729086 -0.0804116 0.114526 0.034564 -0.208558 0.0964007 -0.014545 0.0998081 -0.0850161 0.0791079 -0.0218276 0.129567 0.153843 0.189179 -0.0446475 0.166189 0.0987556 -0.0729077 -0.0380872 -0.186916 -0.000672234 -0.0697203 -0.0606883 -0.0923792 -0.0614619 -0.0276926 -0.143636 0.0401229 -0.13589 0.187734 0.0856943 0.0411374
label 0 1 2 3 4 5 6 7 8 9
nr_sv 42 27 43 48 30 36 46 25 79 44
SV
0.006218177340105943 0 0 0 0.05206267733952291 0 0.08637035687036837 0 0 1:2 3:1 4:4 5:3 6:2 7:2 9:2 10:2 11:4 12:2 13:4 14:4 16:4 
0.2114908839268044 0.2597687013955625 0.1792897102128418 0.2008327771710006 0.1841453699677951 0.2426111868476024 0.2306524990104685 0.2789043984254327 0.2420971752574499 1:2 2:4 3:2 4:3 5:2 6:2 7:1 8:1 9:2 10:2 11:6 12:1 13:4 14:4 15:1 16:5 
0 0 0 0 0.1722920610589032 1 0 0.9269744693014078 0.4197016484261877 1:3 2:1 3:1 4:2 5:3 6:3 7:1 8:1 9:2 10:2 11:4 12:3 13:2 14:5 15:1 16:4 
0.3933027630173878 0.2466054126483548 0.1973581225304444 0.420676950032279 0.1396357048990711 0.5992669577405083 0.3322317626931263 0.1854961191856273 0.4353108685319403 1:2 2:1 3:1 4:1 5:4 6:4 7:1 8:3 9:2 10:2 11:5 12:3 13:3 14:5 16:5 
0.2502155646643169 0.2264674739898687 0.1178398275246951 0.4160710402866977 0.645108654801959 1 0.1612033663959895 0.7700778097128004 0.1513141083009134 3:1 4:2 5:3 6:2 7:2 8:1 9:2 10:2 11:5 12:2 13:2 14:3 16:3 
0.09712292498676178 0.2198346808722885 0.3726650974437719 0.08381779236246147 0.5390827553936779 1 0.1250054853651073 0.83400940237378 0.7424319729626094 1:1 2:1 3:2 4:1 5:4 6:1 7:2 9:2 10:2 11:5 12:1 13:2 14:3 15:1 16:4 
0.4529556724379384 0.5579069218648695 0.4635872304222482 0.5190232949543125 0.6692268441174181 0.6350303166233853 0.4003156312947466 0.6467940969531399 1 1:4 2:2 3:2 4:3 5:2 6:3 7:2 8:2 9:2 10:2 11:6 12:2 13:4 14:3 15:1 16:8 
0.4112960154125729 0.8643163175599826 1 0.4517100813929787 1 1 0.5329397061917672 1 0.8948662140638234 1:4 2:1 3:2 4:1 5:4 7:1 8:1 9:2 10:2 11:4 12:3 13:2 14:4 15:1 16:4 
0.3774497188243479 0.4436179897850077 0.6432519273916304 0.4556966954417107 0.3003958448818055 0.189688996071788 0.4129606927022719 0.5334302653161334 0.934955099138606 1:2 2:1 3:2 4:2 6:4 7:2 9:2 10:2 11:3 12:1 13:2 14:4 15:2 16:5 
0 0 0.3797104833956981 0 0.04525526430467277 0.03498619103707058 0 0.5286596590918361 0.475069495640031 1:3 2:1 3:1 4:2 5:2 6:3 7:1 8:2 9:2 10:2 11:4 12:1 13:3 14:3 15:2 16:6 
0.06456033386924975 0.05314240433332733 0.05993713368427148 0.03416790180215667 0.319245482242978 0 0.05597307421089336 0 0.5665069748646351 1:3 2:1 3:1 4:4 5:2 6:4 7:1 8:2 9:2 10:2 11:5 12:3 13:3 14:5 15:1 16:5 
0.1855415005890358 0.156259544619492 0.06102640369398589 0.1548024414042656 1 0.44231443246294 0.1019102520658651 0.2575481136448603 0 1:3 3:2 4:2 5:3 7:2 8:1 9:2 10:2 11:5 12:2 13:1 14:4 16:5 
0 0.7000283060561127 0.5075615118974665 0 0.319427864607049 1 0.0229541053209437 1 0.9845988999424052 1:1 2:1 3:1 4:1 5:1 6:3 7:1 8:1 9:2 10:2 11:4 12:1 13:2 14:3 16:4 
0 0 0 0 0.0136114868129161 0.03200003589510716 0 0.1023599087129184 0 1:1 2:1 4:4 6:3 7:2 8:2 9:1 10:3 11:5 12:1 13:4 14:3 15:1 16:3 
0 0 0 0 0.4718178794237195 0 0 0 0 1:2 2:2 3:1 4:3 5:1 6:2 7:1 8:2 9:2 10:2 11:5 13:3 14:3 15:2 16:5 
0.2171174578518137 0.1500438028171984 0.06585035262286162 0.229578285265999 0.08628689113804267 0.1229903844539842 0.158323920854137 0.01848658581350284 0 1:1 2:1 4:4 6:3 7:2 8:2 9:1 10:4 11:6 13:4 14:3 15:1 16:4 
0.324653244459164 0.5841666269127928 0.5879858616438306 0.1770872134790952 0.5625685647264536 0.5795490788870106 0.2472454275167316 0.5764493028935808 0.6174302683042905 1:1 2:1 3:1 4:2 5:2 6:2 8:2 9:1 10:3 11:4 13:4 14:2 15:1 16:4 
0 0 0 0.3271354912236409 0 0 0 0 0 1:1 3:2 4:1 5:2 6:2 7:3 8:1 9:2 10:2 11:4 12:1 13:3 14:4 16:4 
0.4451112517668675 0.9568379445237695 1 0.6116960986973579 0.8556950098771832 1 0.5692991033505505 1 0.7296305451517516 1:3 2:2 4:2 5:2 6:2 7:2 8:2 10:4 11:4 12:1 13:3 14:5 15:3 16:3 
0.3918121859927792 0.3782221627426865 0.3158479241919596 0.7834607355052305 0.1777721971903932 0.07262510799831398 0.2366411319572465 0.7662107957902322 0.6802138307707079 1:1 2:1 3:2 4:3 5:2 6:2 7:2 9:1 10:3 11:3 12:2 13:4 14:4 15:1 16:3 
0.29793504827955 0.2247475619112534 0.2277495732151876 0.3467386545860499 0.3015322880943496 0.3374012721395352 0.3137202890403499 0.3244179614883294 0.2094550531016813 1:1 2:1 4:4 6:3 7:2 8:2 9:2 10:2 11:6 13:4 14:2 15:1 16:4 
0 0 0 0 0 0 0 0.01996520719756157 0 1:4 2:2 3:4 4:4 5:4 6:4 7:4 8:3 9:2 10:5 11:9 12:3 13:6 14:7 15:3 16:8 
0.07365005592442479 0.07793149737408164 0.07092555737627546 0.07946507118694379 0.08713055227640873 0.0007928954846989132 0.06699976116713045 0.06136074752367002 0.001564228057371983 1:5 2:2 3:4 4:4 5:4 6:4 7:4 8:2 9:2 10:4 11:8 12:2 13:7 14:6 15:3 16:9 
0 0 0 0 0 0 0 0.03601187070335157 0 1:4 2:2 3:3 4:5 5:5 6:4 7:4 8:2 9:3 10:5 11:8 12:4 13:6 14:6 15:4 16:9 
0 0 0 0 0 0 0 0 0.07415521255110394 1:4 2:2 3:2 4:4 5:5 6:5 7:4 8:2 9:2 10:4 11:8 12:2 13:6 14:6 15:4 16:8 
0.01570870158787409 0 0.001995526749981008 0.01192049292733592 0 0 0.01428356233965591 0 0 1:4 2:3 3:2 4:4 5:5 6:4 7:4 8:3 9:2 10:5 11:9 12:3 13:7 14:7 15:2 16:8 
0.302640813647802 0.2888131836039591 0.2739842003753825 0.3445468592348788 0.2945563309177147 0.3247676579390636 0.2729703780101851 0.3042002511700292 0.262058095955241 1:4 2:2 3:3 4:4 5:4 6:5 7:4 8:2 9:5 10:4 11:8 12:3 13:8 14:7 15:3 16:8 
0 0 0 0 0 0 0 0 0.08140482507812023 1:4 2:2 3:2 4:4 5:5 6:4 7:4 8:2 9:2 10:4 11:8 12:3 13:6 14:6 15:2 16:8 
0.05349814839800825 0.0127696995100553 0.04297691607403031 0.05869097769529005 0.04596374750058928 0.01570995107243655 0.05034361217094635 0.008771710133928972 0 1:5 2:2 3:2 4:4 5:4 6:4 7:4 8:3 9:2 10:4 11:9 12:2 13:7 14:6 15:2 16:8 
0.4675567870658663 0.4690128143620092 0.4350002972365047 0.5337375420967576 0.5046618449220588 0.4750828261324408 0.422395442417791 0.5756870635632008 0.4372612398213184 1:5 2:3 3:3 4:4 5:4 6:4 7:5 8:3 9:2 10:4 11:8 12:6 13:6 14:6 15:2 16:9 
0 0 0 0 0 0.06157774217804694 0 0.2048730301881623 0.1776400711347643 1:4 2:4 3:2 4:4 5:4 6:4 7:4 8:2 9:3 10:4 11:8 12:4 13:6 14:6 15:3 16:8 
0 0 0 0 0 0 0 0.03031128424102915 0 1:4 2:2 3:3 4:4 5:4 6:4 7:6 8:2 9:2 10:4 11:8 12:3 13:6 14:6 15:4 16:8 
0 0 0 0 0 0.1330778573708294 0 0.06379807788171232 0 1:4 2:2 3:3 4:4 5:4 6:4 7:5 8:2 9:3 10:4 11:8 12:5 13:6 14:6 15:2 16:8 
0.3074564860469762 0.2932493031839239 0.2763229231483421 0.3566489932444563 0.2468280410581848 0.3087711893572845 0.2774501806102787 0.3005109704962167 0.2618390040813092 1:4 2:3 3:3 4:4 5:4 6:6 7:6 8:2 9:2 10:4 11:8 12:4 13:6 14:7 15:5 16:8 
0.4819740540331748 0.4756944373677057 0.4451662064920493 0.5519016546621438 0.4310495170913258 0.5269827127014518 0.4343473589805872 0.5499316876620037 0.4154128341142209 1:4 2:2 3:2 4:5 5:5 6:4 7:4 8:4 9:3 10:4 11:8 12:2 13:6 14:7 15:6 16:8 
0.1358827537378231 0.1342931445582457 0.1270038077642875 0.1517256069469869 0.1228426021693474 0.1501487055680105 0.1225124054747054 0.06350318459317764 0.1307458278481449 1:4 2:4 3:2 4:4 5:4 6:6 7:4 8:2 9:4 10:4 11:8 12:4 13:7 14:7 15:4 16:8 
0.01858158505298565 0.01682142630522967 0.01904697520858755 0.0266306059443308 0.005536648037595175 0 0.01586932911803274 0 0 1:4 2:3 3:2 4:5 5:4 6:4 7:4 8:3 9:2 10:4 11:8 12:3 13:6 14:8 15:2 16:8 
0.09277966055624433 0.09383653547933468 0.08474621730716782 0.1087477445410992 0.02337180219102492 0.09853977460914939 0.08212338272640793 0.1026119944841954 0.1659836358315752 1:4 2:2 3:4 4:4 5:4 6:4 7:4 8:2 9:2 10:4 11:8 12:2 13:7 14:7 15:2 16:8 
0.02812489068853421 0.02579461415525224 0.02018080746186849 0.02840620959637331 0.02959197371132793 0 0.02502723769441377 0 0 1:5 2:4 3:2 4:5 5:4 6:4 7:4 8:2 9:2 10:4 11:8 12:3 13:7 14:6 15:3 16:9 
0.1555976962788706 0.2177175573650168 0.153497814813405 0.1782448802269557 0.2880464428945111 0.3925543257689938 0.1384040529064571 0.2266181419656381 0.1903935090281186 1:4 2:2 3:2 4:4 5:4 6:4 7:4 8:2 9:2 10:5 11:9 12:2 13:6 14:6 15:2 16:8 
0.06963478713942231 0.09069538439437783 0.07326004171106539 0.0919940081181938 0.03874196086243656 0 0.06383519618483803 0 0.03355216998262228 1:4 2:3 3:2 4:4 5:4 6:4 7:4 8:2 9:3 10:4 11:8 12:2 13:6 14:8 15:2 16:8 
0 0.004061848738240652 0.02161432019057491 0 0.1471670156698206 0.1326803888329294 0 0.1722681040751146 0.1251320318089364 1:4 2:3 3:2 4:5 5:5 6:4 7:4 8:2 9:2 10:4 11:8 12:2 13:6 14:6 15:5 16:8 
-0.9201617038346371 1 0.8827746568171742 1 0.8498070052266653 0.9989469841337864 0.9453623728872761 1 0.9994771253309854 1:1 2:1 4:1 5:2 7:1 8:2 10:2 11:1 12:3 13:3 14:3 
-0.1907644520915638 0 0.09935488581790627 0.1942960240692179 0.140101014976383 0.1758766739830683 0 0.1754342150760951 0 1:1 2:1 3:1 5:2 7:1 9:1 10:1 12:1 13:6 14:1 
-0.2033795531322659 0.09488207004740218 0.1274319795138803 0 0.1642531116530933 0.1738426607566459 0 0.1887084119046925 0.09252499755320075 1:1 2:2 3:1 4:2 6:1 8:1 9:1 10:1 11:1 12:2 13:7 
-0.3351572991811156 0.2886888758844103 0.3123284057139735 0.4714971765587005 0.3027989770533167 0.288624197299866 0.423939534362277 0.2787642741938999 0.2542727257366547 2:1 4:1 6:1 7:1 9:1 10:1 12:2 13:4 
-0.4475939497732855 0.305439969389203 0.3909628869323587 0.3880935006236711 0.4344736877202041 0.4758132572807244 0.2138950642072617 0.6081352343077362 0.5457925327762415 2:2 3:2 5:1 6:1 10:2 11:2 12:2 13:4 
-0 0 0 0 0 0 0 0 0.3866332535609391 1:1 2:1 3:1 4:1 6:1 9:1 10:1 12:1 13:5 14:1 
-0 0.6446558250299055 0.09577281295836913 0.3742567877886093 0 0 0.5224915629789308 0.04861017718179222 0.6858444031742438 1:1 3:1 5:1 7:1 8:1 10:2 11:1 12:1 13:4 14:1 
-0 0 0 0.003366280095470045 0 0 0 0 0 2:1 3:1 4:1 6:2 7:1 8:1 9:1 10:1 12:2 13:6 14:1 
-0 0 0 0 0 0 0.1801375729124455 0 0.01000043628820244 1:2 2:1 3:1 5:1 6:1 7:1 8:1 9:1 10:1 11:1 12:1 13:7 14:1 
-0.4239650082509764 0.2139624683957776 0.3001179720473436 0.5454898322428696 0.332270399024395 0.3469913322710148 0.1388340759492643 0.3553924775142641 0.2593540697771383 1:1 3:2 4:1 6:1 7:1 9:1 10:3 12:1 13:7 14:2 
-0.197859630042047 0.3424696483310493 0.2325339351211845 0.06279615622053746 0.1814313572263214 0.163528107252283 0.0387454207719018 0.310564721480915 0.08767371058976138 1:1 2:2 3:1 6:1 7:1 10:4 11:1 12:2 13:5 14:1 15:1 
-0.09113606545349093 0 0.01063831729970332 0.07733980378092456 0.06614173605171209 0.06979126690274923 0 0.05819057997863366 0 1:1 2:3 4:1 6:1 7:1 8:1 9:1 10:1 12:3 13:6 14:1 
-0 0 0 0.2688013948990084 0 0 0 0 0.009519397792264433 2:2 3:1 4:2 6:1 7:1 9:1 10:2 11:1 12:1 13:6 14:1 15:1 
-0.08777528012512627 0.3668554184478352 0.1666930685568993 0.04528452906310566 0.0959565969428874 0.1042046467950414 0.2627334755725219 0.04203379055723712 0.233946759345233 1:1 2:2 3:2 6:1 7:1 9:1 10:1 11:1 12:2 13:5 16:1 
-0.01868778387795542 0 0 0 0.02323963210767172 0.005182396109153698 0 0.02241414051321124 0 1:1 3:1 4:1 5:1 7:1 8:1 9:1 10:1 12:2 13:6 
-0 0.2050839738989279 0.07232590530008701 0 0.03737579991691115 0 0.4744188754229967 0 0 1:1 2:2 4:1 8:1 9:1 10:1 12:1 13:5 14:1 
-0.183887328864017 0.08474848458546878 0.07160468735575132 0.3620174401526992 0.09010611355035683 0.1317066077019168 0 0.1757829965202992 0 2:2 5:1 6:1 7:1 8:2 10:2 11:2 12:1 13:5 14:1 
-0 0 0 0 0 0 0.2281250293741936 0 0 1:1 2:2 3:1 6:1 7:1 9:1 10:1 11:1 12:1 13:5 14:1 
-0.7494203278268777 0.6259331074305267 0.6005964235505283 0.6829242567950337 0.6422742539447417 0.6679564883558152 0.5761431539886265 0.6957962523760102 0.6450825911730738 1:2 2:3 3:2 4:1 5:1 6:1 7:1 8:1 9:2 10:4 11:5 12:2 13:10 14:1 
-0 0 0 0 0 0 0.008805521589281993 0 0 1:1 2:3 3:2 4:1 5:1 6:2 7:2 8:1 9:2 10:4 11:1 12:4 13:10 14:2 15:2 
-0.37242160841126 0.3125858909996675 0.3006368503505763 0.3583085491492407 0.3212134462178098 0.3329138393506401 0.3030485035718997 0.3502758665602615 0.3147397410672707 1:2 2:3 3:1 4:2 5:1 6:1 7:1 8:1 9:2 10:5 11:1 12:4 13:10 14:1 15:2 16:1 
-0.3968206550138241 0.3381149867760465 0.3176262842059621 0.3902090632094459 0.3357352006640765 0.3483665971782457 0.3080132299000362 0.3660296205580775 0.3371451291209369 1:1 2:2 3:1 4:1 5:1 6:1 7:3 8:2 9:2 10:4 12:2 13:10 14:4 15:1 16:1 
-0.3510209913465219 0.3046382395025548 0.2800461443951542 0.3060207621903203 0.2908462931742424 0.3073213563593397 0.2836965212522053 0.3305394046555886 0.2946404190607516 1:2 2:3 3:3 4:1 5:2 6:1 7:1 8:1 9:2 10:4 11:3 12:3 13:10 14:1 15:1 16:2 
-0.369491506966995 0.3224916442562293 0.3131278888546577 0.3371943949898477 0.322933287243148 0.3361525043010385 0.2844690789274136 0.3403150460775895 0.3407258471174373 1:1 2:2 3:1 4:1 5:1 6:2 7:1 8:2 9:1 10:3 12:4 13:10 14:1 
-0.1021132333702263 0.08025445517238859 0.07877196116917681 0.1013021162752661 0.08349726823585134 0.08581581254161678 0.06573429651998888 0.08979391569184983 0.08907790480410839 1:1 2:4 3:2 4:2 5:1 6:1 7:2 8:1 9:1 10:3 11:1 12:3 13:10 14:4 
-0.6338530138444033 0.530965490297957 0.5136409115708971 0.5801385925013597 0.5440709034208058 0.565138556969716 0.5290130307834755 0.5863637528296455 0.5463699758817777 1:2 2:4 3:1 4:1 5:1 6:1 7:2 8:2 9:1 10:3 11:1 12:2 13:10 14:5 
-0.2543597721701135 0.2313457368435152 0.2101026809340862 0.1864444803564441 0.2203160919333478 0.2292162983612813 0.1990293767051921 0.2302055074455054 0.2377950154938214 1:1 2:2 3:1 4:1 5:1 6:1 7:1 8:1 9:2 10:5 12:2 13:10 14:1 15:2 16:1 
-0.715798082581003 -0.2451093872729121 0.6608179678234866 0.2305956919763902 1 0.6476173531685869 0.4581578754330818 1 0.8997833646836739 1:3 2:3 3:1 4:1 6:1 7:1 9:1 10:3 11:4 12:2 13:2 14:2 15:1 16:3 
-0.02457682465208949 -0 0.3422344893099993 0 0.2887061697352258 0.079191196972327 0.4163467646595607 0 0.495985074165137 1:4 3:1 6:1 7:1 9:1 10:3 11:2 12:2 13:2 14:1 15:1 16:3 
-0 -0.07228218622116744 0 0 0 0 0.3476373334247828 0.1405565816506771 0.1228682014074077 1:2 2:2 3:1 5:1 9:1 10:3 11:3 12:2 13:1 15:2 16:2 
-0 -0 0 0 1 0 0 1 0 1:3 2:1 3:1 4:1 6:1 7:1 8:1 9:1 10:3 11:3 12:3 13:1 14:2 15:1 16:3 
-0.682115808048092 -0.4176378759135125 1 0.4051590253437997 1 1 0.6360317518087965 1 1 1:2 4:1 5:2 8:1 9:1 10:3 11:2 12:1 13:2 14:2 15:1 16:2 
-0 -0 0 0.0009678309017221374 0.6274632950331568 0 0.006002611827589319 0 0 1:3 2:2 4:1 9:1 10:3 11:3 12:2 13:1 15:1 16:3 
-0.01637893381682217 -0.3638468621103441 0.1635187738249635 0.238431270910326 0.3193458674739383 0.2869741767329949 0.315679435150082 0.2653335590744244 0.5189248206538408 1:1 2:1 3:2 6:1 8:1 9:1 10:3 11:4 12:2 14:1 15:1 16:2 
-0.5325305880820901 -0.167847156311825 1 0.3620579273730773 0.5583883675494757 1 0.2976941677893392 1 1 1:3 2:1 3:1 5:1 6:2 7:1 8:1 9:1 10:3 11:2 12:3 13:1 14:2 15:3 16:3 
-0.8196090405762564 -0 1 0.6213593612472526 0.8220137899348335 1 0 1 1 1:1 2:1 3:2 5:1 6:1 7:1 8:1 9:1 10:3 11:4 12:2 13:1 14:2 15:1 16:2 
-0 -0 1 0 0 0 0 0.4362849758725876 0 1:3 2:1 3:1 6:1 7:1 8:1 9:1 10:3 11:2 12:2 13:1 14:1 15:3 16:3 
-0 -0 1 0 0.2848079298713002 0 0 0 0.5151129543746551 1:2 2:1 4:1 5:1 7:1 9:1 10:3 11:2 12:2 13:1 15:2 16:3 
-0 -0.009868835967019551 0 0 0.377025063908183 0.1613363738735611 0 0.3207347747041655 0 1:2 2:2 4:1 5:1 8:1 9:1 10:3 11:3 12:3 13:1 15:1 16:3 
-0 -0 0.1303715077457402 0 0.1391474909891176 0 0 0 0 1:2 2:1 3:1 4:1 9:1 10:3 11:3 12:2 14:1 16:3 
-0 -0.6873729065932973 0.06742328605521548 0.3358087120291051 0 0 0.1504904818839699 0 0.6794856100280718 1:2 3:1 5:1 7:1 8:1 9:1 10:3 11:2 12:2 13:2 14:2 16:2 
-0 -0.2161748398477573 0 0.09061399056857707 0 0 0 0.181754512173119 0 1:2 3:1 5:1 7:1 8:1 10:4 11:2 12:1 13:2 14:1 15:2 16:2 
-0.3499740873169471 -0.1272778537490583 1 0.1400868440348782 0.301291908870658 0.6720351628132926 0 1 0.345648581285578 1:2 2:3 3:1 4:1 5:1 7:1 8:1 9:1 10:3 11:3 12:3 13:1 14:2 15:1 16:4 
-0.2931581494992375 -0 1 0.1805519057010994 0 0 0 0 0.6315181348272872 1:2 2:1 3:1 4:1 9:1 10:3 11:2 12:1 13:1 14:1 16:4 
-0.3716463268970226 -0.4772174796207794 0.3769522357673269 0.2590128397227122 0.3589739780969371 0.2456423719938844 0.2375230223115744 0.580798523258288 0 1:3 2:1 3:1 7:1 8:1 9:2 10:4 11:2 12:2 13:4 15:2 16:3 
-0.8167549133329993 -0.9960824228849499 1 0.9168920850354707 1 0.8538182029742509 1 0.7947093423891805 1 1:1 2:1 4:1 7:1 8:2 9:3 10:1 11:2 12:1 13:3 14:1 15:1 16:2 
-0 -0 0.6183551729493295 0 0 0 0 0 0 1:4 2:4 3:2 4:1 5:1 6:1 7:1 8:1 9:2 10:6 11:4 12:3 13:3 14:4 15:4 16:5 
-0 -0.02215928033804178 0 0.02445469810918024 0 0 0 0 0 1:5 2:2 3:1 4:1 5:1 6:1 7:1 8:1 9:3 10:6 11:3 12:4 13:3 14:3 15:3 16:6 
-0.05956886485096495 -0.01604751049965319 0 0 0 0 0.03505918085324021 0 0 1:4 2:3 3:1 4:1 5:1 6:1 7:1 8:2 9:2 10:6 11:3 12:3 13:5 14:3 15:3 16:5 
-0.3345262807903941 -0.2655704751354671 0 0.281182882898545 0.6695334785404737 0.1482142215748051 0.3048956879479607 0.1908910638940169 0.2904148169278498 1:5 2:2 3:3 4:2 5:1 6:2 7:1 8:1 9:2 10:6 11:5 12:4 13:5 14:3 15:3 16:5 
-0.2016553250307039 -0.07479127915655781 0 0.08338852684729382 0.2287771917228773 0.5301358279543534 0.06175328845894956 0.5334438675259712 0.3313040114808415 1:5 2:2 3:1 4:1 5:2 6:2 7:2 8:1 9:2 10:6 11:5 12:4 13:4 14:3 15:3 16:5 
-0 -0 0 0 0 0 0 0.7345266043718807 0 1:4 2:2 3:2 4:1 5:2 6:1 7:1 8:1 9:2 10:6 11:5 12:3 13:3 14:3 15:3 16:5 
-0.3104710255224911 -0.2510590630312787 0.6007251605758542 0.2699448519258965 0 0.2927678124897141 0.2049035737400874 0.4766974987492136 0.6378245304540114 1:4 2:2 3:4 4:1 5:1 6:2 7:1 8:1 9:2 10:6 11:4 12:4 13:3 14:3 15:4 16:6 
-0.6584501034403926 -0.2155720473375235 0.5754986582593032 0.2473074503023132 0.8876330599321801 0.7085321111471884 0.2019674579692821 1 0.7940439094302693 1:4 2:2 3:2 4:2 5:3 6:1 7:2 8:2 9:2 10:6 11:5 12:3 13:4 14:5 15:3 16:6 
-0 -0 0.7577554864331775 0 0 0 0 0 0 1:4 2:2 3:1 4:1 5:2 6:1 7:2 8:1 9:2 10:6 11:3 12:3 13:3 14:4 15:3 16:6 
-0.1402850900687261 -0.07643329826940821 0.1005989124922222 0.1215297984112987 0.04690151688836837 0.03658047471570346 0.085182334652085 0 0 1:4 2:2 3:1 4:1 5:1 6:1 7:1 8:1 9:4 10:6 11:3 12:3 13:4 14:3 15:4 16:5 
-0 -0 1 0 0 0 0 0 0 1:4 2:2 3:2 4:1 5:1 6:1 7:1 8:1 9:3 10:6 11:3 12:3 13:3 14:3 15:5 16:5 
-0.0698576933927792 -0.1375837465633121 0 0.1434833561938348 0.04685843819472655 0.09265374219006361 0.09858488464502355 0.05471764537191704 0 1:4 2:3 3:3 4:2 5:1 6:1 7:2 8:1 9:2 10:6 11:5 12:5 13:4 14:3 15:3 16:5 
-0 -0 0.7653746191270198 0 0 0 0 0 0 1:4 2:2 3:2 4:1 5:2 6:1 7:1 8:1 9:2 10:6 11:4 12:3 13:3 14:3 15:3 16:6 
-0 -0 1 0 0 0 0 0 0 1:5 2:3 3:1 4:1 5:1 6:1 7:1 8:1 9:2 10:6 11:3 12:3 13:3 14:3 15:4 16:6 
-0.8228082155227848 -0.6462195609152406 0.4658251017884065 0.7592166819332031 0.4063476654297602 0.604147345257773 0.6202374305921713 0.5154932306232918 0.5282868644874832 1:4 2:4 3:3 4:2 5:1 6:1 7:2 8:1 9:2 10:6 11:4 12:3 13:4 14:7 15:3 16:5 
-0.4591537472678011 -0.4201305420117216 1 0.4567093654524747 0.4698772051013542 0.5100704030705254 0.4157451147556883 0.4536038185085088 0.2665167267073802 1:5 2:2 3:1 4:1 5:1 6:1 7:2 8:2 9:3 10:6 11:4 12:3 13:3 14:3 15:6 16:5 
-0 -0 0.7382563511462731 0 0 0 0 0 0 1:4 2:2 3:1 4:2 5:1 6:1 7:1 8:1 9:2 10:6 11:3 12:3 13:3 14:3 15:4 16:5 
-0 -0 0 0 0.2494221876296435 0 0 0 0 1:5 2:2 3:1 4:1 5:2 6:1 7:1 8:1 9:2 10:6 11:4 12:3 13:3 14:3 15:3 16:6 
-0.5275818626120342 -0.386831675538038 1 0.4302981653711097 0.240550882640308 0.3518946679778889 0.3545386735686008 0.5244545634797347 0.2654171182364045 1:4 2:2 3:1 4:1 5:1 6:1 7:1 8:4 9:2 10:6 11:3 12:3 13:3 14:4 15:4 16:6 
-0.01575633512836748 -0 0 0 0 0.1738268374796053 0 0.5297004764089722 0 1:4 2:2 3:2 4:1 5:2 6:1 7:3 8:1 9:2 10:6 11:5 12:4 13:4 14:3 15:3 16:5 
-0 -0 1 0 0 0 0 0 0 1:4 2:2 3:1 4:2 5:1 6:1 7:1 8:1 9:2 10:6 11:3 12:3 13:3 14:3 15:4 16:5 
-0 -0 1 0 0 0 0 0.3861456292358974 0.1567865178762662 1:4 2:2 3:1 4:1 5:1 6:2 7:1 8:2 9:3 10:6 11:4 12:3 13:3 14:3 15:5 16:5 
-0 -0 1 0 0 0 0 0.1086956788539075 0.2556257018792835 1:4 2:3 3:2 4:1 5:1 6:2 7:2 8:2 9:2 10:6 11:4 12:3 13:4 14:3 15:5 16:6 
-0 -0 0.3822636174158214 0 0.3468318556859714 0 0 0 0 1:4 2:2 3:2 4:3 5:1 6:1 7:1 8:1 9:2 10:6 11:4 12:3 13:3 14:4 15:4 16:5 
-0.473494466138164 -0 -0 0 0 0 0 0 0 1:4 2:2 3:2 4:2 5:2 6:2 7:1 8:2 9:2 10:4 11:3 12:2 13:4 14:5 15:4 16:5 
-0.02178692429854752 -0.03653258333206898 -1 0.2627407104477921 0 0.08413211614982603 0 0 0.4034952912369162 1:1 2:1 3:1 5:1 7:1 8:1 9:2 10:2 11:2 12:1 14:2 15:1 16:4 
-0.3087112650503816 -0.08578515005782347 -0 0.06665733182250204 0.8195770805878234 1 0.2839302576348077 0.6874146140393822 0.8373584902733121 1:3 2:1 3:1 4:1 5:2 6:1 9:2 10:2 11:3 13:1 14:2 15:4 16:3 
-0 -0 -0.1638592666357312 0 0 0 0.2124798538698078 0 0.270936376935388 1:2 2:1 4:1 6:2 8:1 9:2 10:2 11:1 12:1 13:1 14:2 15:3 16:3 
-0.6387988759097578 -0.4874813640488528 -1 0.4706732821009953 0.5095325189381593 0.5572707177828885 0.4141580330576197 1 0.5383613041840672 1:2 2:1 3:3 4:1 5:1 7:1 8:2 9:1 10:4 11:3 12:1 13:3 14:1 15:4 16:4 
-0.2039625604011273 -0 -0 0 0.8393522997695175 0 0 0.2713388031340799 0 1:3 2:2 3:1 4:1 5:1 7:1 8:1 9:2 10:2 11:2 12:2 13:1 14:2 15:2 16:5 
-0.5643501833265595 -0.5279983287320713 -1 0.7875697944631966 0.09333015973072054 0.2236857526417403 0.5409023524848271 0.5039721468477618 1 1:2 2:1 3:1 4:1 5:1 6:2 8:1 9:1 10:3 11:1 12:1 13:2 14:3 15:4 16:2 
-0 -0 -0.2324387635959335 0 0.9456567438856099 0 0 0.7908638014578581 0.161245613056703 1:3 2:1 3:1 4:1 6:1 7:1 8:1 9:2 10:2 11:3 12:1 13:1 14:2 15:3 16:3 
-0.977189212849301 -0.3432435630197164 -1 0.3494201347205508 1 1 0.2663803263755217 1 1 1:1 2:1 3:1 4:1 5:1 6:1 7:1 8:1 9:2 10:2 11:3 12:1 13:2 14:1 15:2 16:3 
-0 -0.3926304340483676 -1 0.2831032572277857 0.7226554184896508 0 0.2239283463957762 0 1 1:2 3:1 4:1 5:1 6:1 9:2 10:2 11:1 12:2 13:1 14:2 15:1 16:3 
-0.2017578357060514 -0 -0 0 0.02429425621859584 1 0 1 1 1:2 2:1 3:1 4:1 5:2 6:1 7:1 9:2 10:2 11:2 12:2 13:1 14:3 15:2 16:3 
-0 -0 -0.4997831073460772 0 0 0 0 0 0 1:3 2:1 3:1 5:1 7:1 9:2 10:2 11:2 12:1 13:1 14:2 15:2 16:3 
-0.03052648480613129 -0.1761051162348022 -1 0.1640641958174103 0 0 0.01479685614205908 0.04890421580504304 0.4498266438406863 1:2 2:2 3:1 4:1 6:1 7:1 9:2 10:2 11:2 12:2 14:1 15:3 16:4 
-0.9607631391872872 -0.7617526836311149 -1 1 1 1 0.9037315178747982 0.7947788231010764 1 1:2 2:2 5:1 9:2 10:2 11:3 12:1 14:3 16:2 
-0.0169593693599699 -0 -0.1100597681628711 0 0.8301783534288879 0.3412344960319854 0.1094772005084059 1 0.2466186108960121 1:3 2:2 3:1 4:1 5:1 6:1 8:1 9:2 10:2 11:2 12:3 14:3 15:3 16:3 
-0.6398679230519362 -0.1655268362618486 -0 0.2828527172979085 0 0.5800403343258614 0.0653828556344023 0.5071157377165721 0.141756494388284 1:3 3:1 5:2 6:1 7:1 8:1 9:2 10:2 11:1 12:2 13:1 14:3 15:2 16:4 
-0 -0 -1 0 0.8128636114380614 0.2241825079589018 0.6033588439962929 0.2809550424665715 0.571509408158915 1:3 2:1 3:1 5:1 7:1 9:2 10:2 11:2 12:2 13:1 14:2 15:1 16:3 
-0 -0 -1 0 0 0 0 0 0 1:4 2:2 3:1 4:1 5:2 6:2 7:1 8:1 9:2 10:5 11:3 12:3 13:3 14:3 15:4 16:5 
-0 -0 -1 0 0 0 0 0 0 1:4 2:2 3:1 4:1 5:1 6:1 7:1 8:2 9:3 10:5 11:4 12:3 13:2 14:3 15:4 16:5 
-0 -0 -0.3372456152110871 0 0 0 0 0 0 1:4 2:2 3:2 4:1 5:1 6:2 7:1 8:2 9:2 10:5 11:4 12:2 13:2 14:3 15:5 16:6 
-0 -0 -1 0 0 0 0 0 0 1:4 2:2 3:1 4:1 5:1 6:1 7:1 8:1 9:2 10:5 11:3 12:2 13:2 14:3 15:4 16:5 
-0.1362750392512029 -0.1035638665189807 -0.791747722809214 0.1090497577263211 0 0 0.1161157243918568 0 0 1:4 2:4 3:2 4:2 5:1 6:1 7:1 8:1 9:3 10:4 11:3 12:3 13:4 14:3 15:4 16:6 
-0 -0 -0 0 0 0 0 0.7989669911974071 0 1:4 2:2 3:1 4:1 5:1 6:2 7:1 8:2 9:2 10:4 11:4 12:2 13:2 14:3 15:4 16:5 
-0.06196452042627126 -0 -0.4334380511664226 0.002087641316802424 0 0 0 0 0 1:4 2:3 3:1 4:1 5:1 6:1 7:2 8:1 9:2 10:5 11:2 12:2 13:2 14:4 15:5 16:6 
-0.4735761132263426 -0.296084539107886 -0.4905301339170224 0.3367637878201796 0.3385474492095591 0.8921457846949357 0.2508212487670944 1 0.8476635740794102 1:4 2:2 3:2 4:1 5:1 6:2 7:3 8:3 9:2 10:4 11:5 12:4 13:2 14:3 15:5 16:5 
-0.3082469533059359 -0.3269244622101162 -0 0.36333480189372 0.02035179553997476 0.1766661494131444 0.2512997589398913 0 0.01980859453655709 1:5 2:3 3:1 4:1 5:1 6:1 7:1 8:1 9:3 10:4 11:2 12:2 13:2 14:3 15:6 16:6 
-0.002954690333557501 -0.1582587560380657 -0.03209041194744543 0.1584111523720419 0 0.009095952580788109 0.1563072046408396 0 0.3690292342772569 1:4 2:4 3:3 4:1 5:1 6:2 7:1 8:2 9:2 10:4 11:3 12:2 13:4 14:4 15:5 16:6 
-0 -0 -0.0630547320806033 0 0 0 0 0 0 1:4 2:2 3:2 4:2 5:2 6:1 7:1 8:3 9:3 10:4 11:4 12:4 13:3 14:4 15:4 16:5 
-0.4847863115426298 -0.1098816091671572 -1 0.1284086708506172 0.264704058958987 0.5366050774836081 0.2204025969010032 1 0.8651655394873071 1:4 2:3 3:2 4:2 5:2 6:2 7:1 8:3 9:2 10:4 11:4 12:3 13:4 14:5 15:4 16:5 
-0 -0 -0 0 0.6523795907741516 0 0 0 0 1:5 2:2 3:2 4:2 5:2 6:1 7:1 8:1 9:2 10:4 11:4 12:2 13:3 14:3 15:4 16:6 
-0 -0 -1 0 0 0 0 0 0 1:4 2:3 3:2 4:1 5:1 6:1 7:1 8:1 9:2 10:5 11:3 12:3 13:2 14:3 15:4 16:6 
-0 -0 -0 0 0.611202910142951 0 0 0.1156771927134772 0 1:4 2:2 3:1 4:2 5:3 6:1 7:1 8:2 9:2 10:4 11:3 12:3 13:4 14:3 15:4 16:5 
-0.2755480095556099 -0.2562814851712893 -0.2317058108374842 0.2867670299953348 0.1185971639784358 0.2568017341205076 0.2565621560519301 0.4834402011692151 0 1:4 2:3 3:3 4:1 5:1 6:1 7:3 8:2 9:2 10:4 11:5 12:4 13:2 14:3 15:5 16:5 
-0.05107911860181238 -0 -0 0 0.5145983817593914 0.3012247367019747 0 0.7367092575137559 0 1:4 2:2 3:2 4:2 5:1 6:1 7:1 8:2 9:3 10:4 11:5 12:3 13:2 14:3 15:4 16:5 
-0 -0 -0.1361752223982006 0 0 0 0.03270675939525853 0 0 1:4 2:2 3:1 4:1 5:2 6:2 7:2 8:3 9:3 10:4 11:3 12:3 13:4 14:3 15:6 16:5 
-0 -0 -1 0 0 0 0 0 0 1:4 2:2 3:1 4:1 5:1 6:1 7:1 8:1 9:3 10:5 11:2 12:2 13:3 14:3 15:4 16:6 
-0.1308042589512718 -0.2181645572157749 -0.1778732811823541 0.2321343137078794 0.931532949119417 0.2022302972305558 0.1650780456038805 0.4717898769867161 0.3040210258061329 1:4 2:2 3:2 4:3 5:2 6:1 7:1 8:2 9:4 10:4 11:4 12:4 13:3 14:3 15:5 16:6 
-0 -0 -0.03573308954286071 0 0 0 0 0 0 1:4 2:2 3:1 4:1 5:1 6:1 7:1 8:1 9:2 10:5 11:2 12:2 13:2 14:3 15:4 16:6 
-0.2250163283030256 -0.03218062247364881 -0.0631796459913624 0.04887165977230185 0 0.09836551207560183 0.01155154177074781 0.6341539632084262 0.7778556591123544 1:4 2:2 3:3 4:2 5:3 6:1 7:1 8:1 9:2 10:4 11:3 12:4 13:3 14:3 15:4 16:6 
-0 -0 -0.2441106595898307 0 0 0 0 0 0 1:4 2:2 3:1 4:1 5:1 6:1 7:3 8:2 9:3 10:4 11:4 12:3 13:3 14:3 15:4 16:5 
-0 -0 -0.2129168995829303 0 0 0 0 0 0 1:4 2:2 3:1 4:1 5:2 6:1 7:1 8:2 9:3 10:5 11:3 12:2 13:3 14:3 15:5 16:6 
-0.2353160717358909 -0.1670362195359422 -0.1844404543951473 0.140226026005628 0.147755331445334 0.4470567354710762 0.1622622704663402 0.6365690543823999 0.471435959830911 1:4 2:2 3:1 4:1 5:3 6:2 7:1 8:1 9:2 10:4 11:2 12:4 13:3 14:3 15:4 16:5 
-0.0914151884887144 -0 -0 0 0 0 0 0 0 1:4 2:2 3:1 4:2 5:2 6:1 7:1 8:2 9:3 10:4 11:3 12:2 13:3 14:3 15:4 16:7 
-0 -0 -1 0 0 0 0 0 0 1:4 2:3 3:2 4:1 5:1 6:1 7:2 8:2 9:2 10:5 11:4 12:3 13:2 14:3 15:5 16:6 
-0.3007876730833288 -0.365972176791091 -0.3055887043215615 0.452563959529333 0.1439878973518603 0.286712556498195 0.3546333933651778 0 0.1313588431967302 1:4 2:2 3:3 4:2 5:2 6:1 7:1 8:2 9:3 10:4 11:3 12:2 13:3 14:6 15:5 16:5 
-0 -0.03544695674787845 -0 0.02266396058308038 0 0 0.0905913518073629 0 0 1:6 2:2 3:1 4:1 5:2 6:1 7:1 8:2 9:3 10:4 11:3 12:2 13:3 14:4 15:5 16:6 
-0.4094442548896067 -0.3302373481211732 -1 0.3722241027981676 0.4420749808109543 0.7911662074632825 0.2818088362721601 1 1 1:4 2:2 3:1 4:2 5:3 6:2 7:2 8:2 9:2 10:5 11:4 12:2 13:4 14:3 15:6 16:6 
-0 -0 -1 0 0 0 0 0 0 1:4 2:2 3:2 4:2 5:2 6:1 7:1 8:1 9:2 10:5 11:4 12:3 13:3 14:3 15:4 16:5 
-0 -0 -0 -0 0 0 0 0 0.1447266994194296 1:1 2:1 3:1 4:1 5:1 6:2 7:2 8:1 10:1 11:2 12:1 13:1 14:5 15:1 16:1 
-0.2320833705591307 -0 -0 -0 0 0.004212846062550648 0 0 0 2:1 3:2 4:1 5:2 6:1 7:3 9:2 10:2 11:2 12:1 13:4 14:6 16:1 
-0.2025290855413392 -0.09733067843623575 -0.07654136056978576 -0.1574726201899755 0.1809252619221164 0.1668779182816014 0.1325544847902741 0.08622176896934279 0.05349145907935121 2:1 3:1 4:1 5:2 6:1 7:3 8:1 10:1 12:1 13:1 14:6 15:2 16:1 
-0.5852164203682633 -0.4409419436931728 -0.5992161796692325 -0.6192518264634138 0.5629268852641299 0.58496567354434 0.6202621549226557 0.5393686220816837 0.5203898612286643 2:1 6:1 7:3 8:1 10:1 11:3 14:3 15:1 
-0.3027348493442732 -1 -0.4725490740864646 -0.4253265267481401 0.1445407187298623 0.1885875476233796 0.6792418681017151 0.3316553666475355 0.7421641579847761 2:1 3:1 4:1 5:1 6:2 7:2 8:1 10:1 11:1 12:1 13:3 14:3 15:1 16:1 
-0.5208676333747373 -0.3303793358199617 -0.2989591304830002 -0.3565485919366087 0.4281414795729674 0.502705606728174 0.3131301267936726 0.4649536464676214 0.4083128921837085 2:1 3:2 5:2 6:3 7:1 8:1 10:1 11:2 12:1 13:2 14:6 
-0.8644934345733731 -1 -0.6633411817825134 -0.5490746245054685 0.6414835777515161 0.7040507298237486 0.6481098375833627 0.8771190599337888 0.7469514797965875 3:1 4:2 5:2 6:1 7:2 9:2 10:2 11:2 12:1 13:5 14:4 
-0 -0 -0 -0 0.01666464419948402 0.1068083055923073 0.04101231853992339 0 0 3:1 4:1 5:2 6:1 7:3 8:1 9:1 11:3 13:1 14:5 15:1 
-0 -0 -0 -0 0 0.07087504159594671 0 0.203114592844468 0 2:1 3:1 4:1 5:2 6:1 7:3 8:1 10:1 11:2 12:2 13:1 14:4 15:2 
-0 -0.2632974666073348 -0 -0 0.08777828250326647 0 0.2212195720240947 0 0 2:1 3:1 4:1 6:1 7:2 8:1 10:1 11:2 12:2 14:4 
-0 -0.06105435785477403 -0 -0 0 0 0 0 0 1:1 3:1 4:1 5:1 6:1 7:3 8:1 10:1 11:1 12:2 13:2 14:5 
-0.2142995191083223 -0 -0.1553715211280257 -0.03776742095384542 0.06589623264308568 0.1734694095157146 0 0.08765769243280713 0.2047081587994716 3:2 5:2 6:1 7:3 8:1 10:1 11:3 13:2 14:4 16:1 
-0 -0 -0 -0 0 0 0.1195365836759844 0.06874023739055624 0 1:1 2:1 3:1 4:2 5:1 6:1 7:3 10:1 11:2 12:2 13:1 14:5 15:1 
-0.3670060202520206 -0.183128806037068 -0.1318352186020189 -0.1457352564256257 0.2797716906500692 0.2186579285222958 0.1474983345225397 0.2401087046335134 0.147880650728553 3:1 4:2 5:2 7:4 10:1 11:2 12:1 13:2 14:4 16:1 
-0.0008302070269472054 -0 -0 -0 0 0 0 0 0 3:1 4:1 6:1 7:3 8:1 10:1 11:1 12:2 14:4 15:1 
-0.2902522451760982 -0.09677654452709437 -0.7843876181113619 -0.6037952989149676 0.2840901210084533 0.452454679864073 0 0.3907356562884199 0.8349743570571937 2:1 3:1 4:1 6:1 7:2 8:1 9:1 10:2 11:2 12:2 13:1 14:4 16:1 
-0.6951129191972411 -0.4901018114326516 -0.6035400184785915 -0.7376318533007736 0.5856415060401647 0.6466855305987835 0.526718681898824 0.7307488527576501 0.6897558653388159 1:1 3:2 5:1 6:1 7:3 9:2 10:3 11:1 12:1 13:1 14:6 15:3 16:1 
-0.1727492743950945 -0.1164838888992741 -0.1128941014295591 -0.1083500937904226 0.1213605187502321 0.1190638244711473 0.1018307414686367 0.1301198488761404 0.1193846327084395 2:1 3:3 4:4 5:2 6:2 7:5 8:1 9:1 10:3 11:3 12:2 13:3 14:9 15:4 16:1 
-0.1892463915996075 -0.1632692575540906 -0.1579474632137902 -0.1576926025843566 0.1659361837361701 0.171270343768694 0.1507407633961992 0.1810410860947324 0.1646645464198641 2:1 3:3 4:2 5:4 6:2 7:6 8:3 9:1 10:3 11:3 12:3 13:4 14:9 15:4 16:2 
-0.3319574139588464 -0.2608848464481859 -0.2678816130368138 -0.2527761738210649 0.2709967318041909 0.2839678402371802 0.2330857991208181 0.2975914367520166 0.2693919653698039 1:1 2:2 3:2 4:3 5:3 6:2 7:6 8:3 9:1 10:4 11:5 12:2 13:3 14:10 15:4 16:3 
-0.001836495268257891 -0.01722125243519079 -0.006016441184146298 -0 0.01378026867010706 0.0122000852031391 0.0007487141027214099 0.0131828348079614 0 2:1 3:2 4:2 5:2 6:2 7:6 8:1 9:2 10:4 11:3 12:4 13:3 14:9 15:2 16:1 
-0.4128333286715573 -0.305325703853377 -0.3197005913669061 -0.2981499829684546 0.3114242109306257 0.3216055307009134 0.2742580560918241 0.3358694563425249 0.3148834373005158 2:1 3:2 4:2 5:2 6:3 7:6 8:1 9:3 10:4 11:3 12:2 13:3 14:9 15:3 16:4 
-0.2201955309901213 -0.1968477178090268 -0.1833351648360913 -0.1802902084294275 0.1905051269423279 0.1995638659041541 0.1758151035984988 0.2041175577274396 0.1930436356863992 1:2 2:1 3:2 4:2 5:2 6:3 7:5 8:2 9:2 10:3 11:3 12:3 13:6 14:10 15:2 
-0.4290641712551373 -0.3437074195673307 -0.3454127853745869 -0.3421309045172171 0.3568909205837347 0.4031442411299557 0.3116934687058907 0.4036274327402336 0.3853731915481705 2:1 3:2 4:2 5:3 6:4 7:6 8:3 9:2 10:4 11:4 12:3 13:3 14:9 15:4 16:4 
-0.2052910520601346 -0.1445470106105871 -0.1459669779095808 -0.1411779671616415 0.1546054979517113 0.1589040947964148 0.1303266337372546 0.1637370235670953 0.1530392463353984 2:1 3:2 4:2 5:3 6:4 7:6 8:1 9:1 10:3 11:3 12:2 13:5 14:9 15:2 16:2 
-0.08482598646524561 -0.07392954672490344 -0.09916095885952397 -0.0864284626054303 0.07417947506187625 0.0718614050535145 0.0697912590907194 0.07716331043977184 0.0732342423858959 1:2 2:1 3:3 4:2 5:2 6:2 7:6 8:2 9:1 10:4 11:3 12:2 13:3 14:10 15:4 16:3 
-0.2147184177848835 -0.1961591934204321 -0.1924840029991967 -0.186808541687581 0.1983658026478677 0.2069230170454549 0.1733239610014345 0.2115632298002607 0.2037710640120641 1:1 2:2 3:4 4:2 5:3 6:2 7:5 8:1 9:1 10:3 11:4 12:3 13:3 14:10 15:4 
-0.2362638656413265 -0.2024768235396538 -0.205165188627559 -0.1997373507990728 0.211063739932653 0.2159512290776866 0.1941269113404935 0.2254237354359379 0.2091421119706228 1:2 2:1 3:2 4:3 5:2 6:2 7:5 8:1 9:2 10:3 11:3 12:2 13:6 14:10 15:2 
-0.5129721266304061 -0.4034215916758239 -0.4123238297153566 -0.3951890172951536 0.4205107059105969 0.442461132141467 0.3669738114981116 0.4560698785992195 0.4207310793669579 2:2 3:3 4:3 5:2 6:2 7:5 8:1 9:2 10:3 11:6 12:2 13:4 14:9 15:2 
-0.4477763407846176 -0.3484959440156026 -0.3650228408254549 -0.3392529631709076 0.3610871957018291 0.3778341341887677 0.3364590940616361 0.3965520796841629 0.3635979320588004 1:3 2:2 3:2 4:2 5:2 6:2 7:5 8:1 9:1 10:3 11:3 12:4 13:4 14:10 15:2 
-0 -0 -0 -0 -0 0 0 0.002768720747594072 0 1:3 2:1 3:1 4:2 5:2 8:2 9:2 10:2 11:5 12:3 14:3 15:1 16:3 
-0.5688985447647329 -0.3495636791991623 -0.04542124447110885 -0 -0.3861151297274506 0.4176012796026236 0.3083542532946189 0.2437433959754332 0.07422612280563334 1:3 2:1 3:1 4:3 5:2 7:1 8:2 9:2 10:2 11:7 12:1 13:2 14:1 15:2 16:4 
-0 -0.2963539126260737 -1 -1 -0.2159613811054183 0 0.4888721132055543 1 1 1:3 2:2 4:2 6:1 8:1 9:2 10:2 11:3 12:2 13:2 14:1 15:2 16:3 
-0 -0 -0.4047256470699863 -0.3586844876232529 -0 0.1056088977162425 0 0.6696409264045169 0.9417258548028014 1:3 3:2 4:1 5:1 6:1 9:2 10:2 11:4 12:2 13:1 14:2 15:1 16:2 
-0 -0 -0.1063696917767402 -0 -0 0 0 0 0 1:2 2:1 3:1 4:2 5:1 9:2 10:2 11:4 12:3 14:1 15:2 16:1 
-0.8990039190170992 -0.2411893437681546 -1 -1 -0.3305367756895702 0.9026659147135371 0.7145336858148534 1 0.0604097282340563 1:4 2:2 3:1 4:1 5:1 7:1 8:1 9:2 10:2 11:4 12:2 13:2 14:3 15:1 16:3 
-0.1073506455008848 -0.4628169951812177 -0.9986700839219564 -0.6083309327453917 -0.4811920098671991 0.7019771127526694 0.5468513049113157 0.559130696498741 0.3747315411098421 1:2 2:1 3:1 4:2 5:1 9:2 10:2 11:4 12:3 14:1 15:2 16:1 
-0.5788601357713832 -0 -0.5069285154120133 -0.5057783787140981 -0 1 0 0.6186772869686172 1 1:3 2:1 4:2 5:1 6:1 7:1 9:2 10:2 11:4 12:1 13:2 14:2 15:1 16:3 
-0.2522957302050958 -0.1809271602584733 -0.9458715121387079 -0.9971165621180761 -0.2630759084259292 1 0.3209628181217077 1 1 1:3 3:2 4:1 5:1 6:1 9:2 10:2 11:4 12:2 13:1 14:2 15:1 16:2 
-0.4773405252215183 -0 -0 -0 -0.001629614500660063 0.7053144914729926 0 0.8847277120874405 0.1838926681954292 1:2 2:1 4:4 5:2 6:1 8:1 9:2 10:2 11:4 12:2 13:1 14:3 15:2 16:3 
-0.2545013026238016 -0.1148454630340961 -1 -0.4964466160632592 -0.01618678273643193 0.007087947782087581 0.07534969479292344 0.7061422358936511 0.1589053899448633 1:4 2:1 4:2 5:2 7:1 8:1 9:1 10:3 11:3 12:2 13:3 14:1 15:2 16:4 
-0 -0 -0.4166828350906652 -1 -0 1 0 1 0.61042617293935 1:3 2:1 4:2 5:2 6:1 8:2 9:2 10:2 11:3 12:3 13:1 14:2 15:2 16:4 
-0.8190250925240331 -0.6054638717018646 -0.5159537491884172 -1 -0.7145565544223202 0.4398386126799771 0.5492197149197459 0.7406689121822249 0.6650898696529931 1:3 2:2 4:4 5:2 7:1 8:1 9:2 10:2 11:2 12:3 13:2 14:1 15:4 16:5 
-0.7415873267367128 -0.4835282949333459 -0.8040207440221974 -0.6901330404482244 -0.6419761657095848 0.6675904531841639 0.3498276672060391 0.8780631132042656 0.7185371485216575 1:2 3:1 4:3 5:2 9:1 10:4 11:4 12:1 13:1 14:3 15:2 16:2 
-1 -0.2950954228092639 -0.6270800437023353 -0.4274550329315326 -0.3699618678983717 1 0.1479254227339139 1 0.9672526433404359 1:2 3:1 4:1 5:3 6:1 7:1 8:2 9:2 10:2 11:5 12:2 13:1 14:2 15:1 16:4 
-0.127105802030211 -0.1580227209148587 -0 -0.5609221502232377 -0.1926329530223079 0.905232229330632 0.1975734476718949 1 0.1912903833291613 1:5 2:1 3:1 4:1 5:3 7:1 8:1 9:2 10:2 11:5 12:2 13:2 14:1 15:3 16:4 
-0.8781285390887946 -0.0763701319760393 -0 -0 -0.05537850418084217 1 0 1 0 1:3 2:1 3:2 4:2 5:3 7:1 8:2 9:2 10:2 11:6 12:3 13:1 14:3 15:2 16:3 
-0 -0 -0 -0.5182573756232807 -0 0 0 0 0 1:6 2:2 3:1 4:4 5:3 6:2 7:1 8:1 9:2 10:4 11:6 12:3 13:3 14:3 15:5 16:6 
-0 -0 -0 -0 -0 0 0 0.05244643846325127 0.2854633128476537 1:6 2:2 3:1 4:4 5:3 6:3 7:1 8:1 9:2 10:4 11:7 12:3 13:3 14:3 15:5 16:6 
-0.01599907141286098 -0 -0 -0 -0 0.03176834495420639 0 0.4264710724936465 0.2277556935685059 1:6 2:2 3:1 4:4 5:4 6:2 7:1 8:1 9:3 10:4 11:6 12:4 13:5 14:3 15:3 16:7 
-0 -0 -0.1155429554427113 -0.1468592288789155 -0 0.4416973225101643 0 1 0 1:5 2:2 3:1 4:4 5:4 6:1 7:2 8:3 9:2 10:4 11:7 12:4 13:4 14:3 15:5 16:5 
-0 -0 -0.4492392203924956 -0.0487067466986654 -0 0 0 0.1622702092391721 0 1:5 2:1 3:2 4:4 5:3 6:1 7:1 8:1 9:2 10:5 11:6 12:4 13:3 14:3 15:3 16:6 
-0 -0.2109338063101316 -0 -0 -0.2291927879559749 0 0.1986353370935429 0 0 1:5 2:1 3:1 4:5 5:5 6:1 7:1 8:1 9:2 10:4 11:6 12:4 13:3 14:4 15:4 16:5 
-0.4199366405668508 -0.2676573989334705 -0.7893640199233209 -0.501342916855305 -0.2972364401410223 0 0.2532247827930605 0.2207941632046605 0.4303268888497688 1:6 2:2 3:2 4:4 5:3 6:2 7:1 8:1 9:2 10:5 11:6 12:3 13:5 14:3 15:4 16:7 
-0 -0 -0.09016407852808862 -0 -0 0.2539164600709241 0 0 0 1:5 2:1 3:1 4:4 5:3 6:1 7:3 8:2 9:2 10:4 11:7 12:4 13:4 14:3 15:3 16:5 
-0.4552537198657041 -0.4151290538400867 -0.3374228768662211 -0.3889082180984687 -0.4586548213043332 0.4268199116639921 0.3787108596276738 0.1150373064597726 0.2791109056529373 1:6 2:2 3:1 4:4 5:3 6:1 7:1 8:2 9:5 10:4 11:7 12:4 13:3 14:4 15:4 16:7 
-0 -0 -0 -0.1984998650702635 -0 0.2824754544607049 0 1 0.1737237226034031 1:5 2:1 3:1 4:4 5:3 6:2 7:2 8:1 9:3 10:4 11:6 12:4 13:3 14:4 15:4 16:5 
-0.08780906146046 -0.09433099645323266 -0.2326266691011013 -0.1529871113091335 -0.103928999325146 0.06018760521516029 0.09669893174039107 0.725774212053937 0.2513493628830832 1:6 2:2 3:3 4:4 5:3 6:1 7:1 8:2 9:3 10:4 11:7 12:4 13:3 14:5 15:4 16:6 
-0 -0 -0 -0 -0 0 0 0.7082849740439794 0 1:6 2:2 3:2 4:4 5:3 6:1 7:1 8:2 9:3 10:5 11:7 12:4 13:3 14:3 15:5 16:7 
-0.5493222959175583 -0.02115304968299926 -0.2894176432744451 -0.1323562289388231 -0.03275470731815504 0.03066736925909253 0.03181199835349257 0 0 1:5 2:1 3:1 4:4 5:4 6:1 7:1 8:1 9:3 10:4 11:6 12:3 13:3 14:5 15:3 16:5 
-0.2919285957300315 -0.2221802312561675 -0.245217255902601 -0.1324923783391281 -0.249946504122387 1 0.2115846071594085 1 0.8180289355179868 1:5 2:1 3:1 4:4 5:4 6:3 7:1 8:2 9:2 10:4 11:7 12:3 13:3 14:4 15:5 16:5 
-0.6074075162103685 -0.2927308787987505 -0.1585928212621271 -0 -0.3214969747787867 0.9892817424778962 0.3004116591182349 0.3152597979728325 0.7952215118215461 1:5 2:1 3:1 4:4 5:4 6:3 7:1 8:1 9:2 10:4 11:7 12:3 13:5 14:3 15:3 16:5 
-0 -0 -0.02330562626885323 -0 -0 0 0 0 0 1:5 2:1 3:2 4:4 5:3 6:1 7:1 8:2 9:2 10:5 11:7 12:3 13:3 14:4 15:3 16:6 
-0 -0 -0 -0.592645845244634 -0 0 0 0 0 1:5 2:1 3:2 4:4 5:3 6:1 7:1 8:2 9:3 10:4 11:6 12:4 13:4 14:3 15:4 16:5 
-0.3903735658159206 -0.2784290028429667 -0.1974092601254853 -0.1472409027398197 -0.3092639633879181 0.249359131019292 0.2526047414690099 0.6003961029304821 0.3476949181815622 1:5 2:2 3:1 4:5 5:3 6:1 7:1 8:3 9:2 10:5 11:7 12:5 13:3 14:3 15:3 16:7 
-0.5985232897162341 -0.4121207617635858 -0.3698708493469104 -0.1780089329145334 -0.4568879332892284 0.7008889056891608 0.3888283196599548 1 0.4451754070681564 1:6 2:3 3:2 4:4 5:3 6:1 7:3 8:2 9:2 10:4 11:8 12:5 13:4 14:3 15:4 16:6 
-0 -0 -0.07966917466154085 -0.4615633912895241 -0 -0 0 1 0.6589333256347516 1:3 2:2 3:3 4:1 5:4 6:3 7:3 8:2 9:2 10:4 11:7 12:3 13:3 14:3 15:5 16:6 
-0.5236499591385061 -0.2175632222004466 -0.7547531836278015 -0.3349855827285931 -0.2461860305513102 -0.4456242498347733 0.08151750333522712 1 0 1:2 2:2 4:1 5:3 6:1 7:2 8:1 9:1 10:4 11:5 12:2 13:1 14:3 15:3 16:3 
-0.4866105084122613 -0.07760930889653445 -0 -0.5301598073243275 -0.00668158375084983 -0.1743986910654526 0.1211253951172694 1 0.793610341707627 1:3 2:1 5:3 6:3 7:1 8:2 9:2 10:2 11:4 12:2 13:2 14:2 15:3 16:4 
-0.08295639342190247 -0.4909616885316699 -0.2605805386762123 -0.1190658485062578 -0.3513958850285078 -0.7635189994754094 0.6730978506782046 1 0.8479002255414403 1:3 2:1 3:1 4:1 5:3 6:2 9:2 10:2 11:4 12:3 13:3 14:2 15:2 16:1 
-0.5937402477800644 -0.3152770553777596 -0.46250351696256 -1 -0.620786210190911 -1 0.4632843616594946 0.6757227662369349 1 1:2 4:1 5:3 6:1 7:1 9:2 10:2 11:4 13:1 14:3 15:2 16:2 
-0 -0 -0 -0 -0 -0 0 1 0 1:2 2:1 4:1 5:2 6:2 7:1 8:1 9:2 10:2 11:4 12:3 13:1 14:2 15:1 16:3 
-0.3865776819588931 -0.4374847553279696 -1 -0.7745429116702122 -0.4157190484713646 -0.5184751975942357 0.3391214405634701 1 1 1:2 2:1 3:2 5:2 6:2 7:1 8:2 9:2 10:2 11:4 12:4 13:2 14:1 15:2 16:3 
-0.9091091461804167 -0.1935866716356409 -0.8594917786842551 -0.4678519763113316 -0.1784210585510735 -1 0.163731327772159 0.3824145573645526 1 1:2 2:1 4:1 5:2 6:2 8:1 9:2 10:2 11:4 12:2 13:2 14:3 16:2 
-0 -0 -0 -0 -0 -0 0 1 0 1:2 3:1 5:4 6:2 7:1 9:2 10:2 11:4 12:2 13:2 14:2 15:2 16:2 
-1 -0.14069321901517 -0 -0 -0.09623248468665956 -1 0 1 0 1:1 2:1 4:2 5:3 6:1 7:1 8:2 9:2 10:2 11:5 12:2 13:2 14:2 15:1 16:3 
-0 -0 -0 -0 -0 -1 0 1 0 1:2 2:1 3:1 4:1 5:2 6:2 7:1 8:2 9:2 10:2 11:5 12:3 13:1 14:2 15:2 16:3 
-1 -0.2432764219673279 -0.5933765972047781 -0.8962166945465939 -0.2801381606628888 -1 0.3724904344377395 1 0.1662418360930095 1:4 2:1 3:1 4:1 5:3 7:2 9:2 10:2 11:4 12:3 13:1 14:3 15:2 16:3 
-1 -0 -0 -0 -0 -0 0 0.06783930003312662 0 1:2 3:1 4:1 5:3 6:3 7:1 8:1 9:2 10:2 11:5 12:3 13:1 14:3 15:1 16:3 
-1 -0.5812238014699777 -0.7897251648900107 -1 -0.8785859409802927 -0.2799088662679975 0.4875887088660583 1 0.9376263666395592 1:1 2:2 5:3 6:1 7:1 8:1 9:2 10:2 11:3 12:2 13:1 14:4 16:3 
-0.3648968288774234 -0 -0.3039197875980582 -0.8149376005097128 -0 -1 0.1423587132336827 1 0.8684655370230293 1:3 2:1 3:1 4:2 5:2 6:1 7:2 8:1 9:2 10:2 11:5 12:2 13:2 14:2 15:3 16:3 
-0 -0.0649802641627077 -0.5861484077708031 -0.6312714377614409 -0.2793749631592263 -0 0.08558165421328509 1 1 1:2 3:1 5:2 6:3 7:1 8:1 9:2 10:2 11:4 12:2 13:1 14:2 15:3 16:2 
-0 -0 -0.2780670641860534 -0 -0 -0.7063491196018857 0 1 0.5736007078831558 1:2 2:1 4:1 5:2 6:2 7:1 8:1 9:2 10:2 11:4 12:3 13:1 14:2 15:1 16:3 
-0.2474154241803335 -0.3040212031959084 -0.2376592715001062 -0.1189047071094239 -0.3374787544116948 -0 0.2779978946991775 1 0 1:4 2:2 3:1 4:1 5:5 6:3 7:2 8:2 9:3 10:5 11:8 12:4 13:3 14:3 15:3 16:7 
-0 -0 -0 -0 -0 -0 0 0.9100921592220137 0.04354322135823886 1:4 2:2 3:1 4:1 5:4 6:3 7:2 8:2 9:3 10:4 11:7 12:4 13:3 14:3 15:3 16:6 
-0.7894286078308189 -0.6506780065663617 -0.6601464532249187 -0.5966628255175478 -0.7271628624651066 -0.7102498070004886 0.5998833165356078 1 0.4194874034366488 1:4 2:1 3:2 4:2 5:4 6:3 7:3 8:3 9:3 10:5 11:8 12:8 13:4 14:3 15:3 16:4 
-0 -0 -0 -0 -0 -0 0 1 0.1604289725942874 1:3 2:2 3:2 4:1 5:5 6:3 7:2 8:2 9:2 10:4 11:7 12:4 13:3 14:3 15:3 16:6 
-0 -0 -0 -0.1060198472133667 -0 -0 0 0 0 1:3 2:1 3:1 4:1 5:4 6:4 7:3 8:2 9:2 10:5 11:7 12:3 13:3 14:3 15:5 16:5 
-0.3574793300308388 -0.2744914322964082 -0.1111163967615451 -0 -0.302429245533819 -0.3738798813874701 0.2459007481007416 0 0 1:4 2:1 3:1 4:2 5:4 6:4 7:2 8:2 9:2 10:4 11:8 12:3 13:3 14:5 15:3 16:4 
-0 -0 -0.1766732648340722 -0.1363141337554135 -0 -1 0 1 0.326446128034502 1:5 2:2 3:1 4:2 5:4 6:3 7:2 8:2 9:2 10:4 11:8 12:4 13:3 14:3 15:3 16:6 
-0.3756024971045898 -0.3628196582960577 -0.3553215893813291 -0.2685114452739619 -0.4021223184761672 -0.2236156305896596 0.3401174518228606 1 0.02010942013262215 1:3 2:5 3:2 4:1 5:4 6:3 7:2 8:2 9:2 10:4 11:8 12:4 13:4 14:3 15:4 16:5 
-0.1399343033856651 -0.05184702075860476 -0.188669628981455 -0.367471596512127 -0.06373931235329665 -0.1361584813458239 0.06039567246539428 0.7979405497004086 0 1:3 2:3 3:1 4:2 5:4 6:3 7:2 8:4 9:3 10:4 11:7 12:3 13:4 14:5 15:5 16:5 
-0 -0 -0 -0 -0 -0 0 0 0.03952569057015003 1:3 2:2 3:1 4:1 5:4 6:4 7:2 8:2 9:3 10:4 11:7 12:3 13:4 14:4 15:3 16:5 
-0.01131774287279907 -0.1687620225286114 -0.0213927205243414 -0 -0.1940811230813236 -0 0.1509059808677274 0 0.1222644304865693 1:3 2:1 3:1 4:1 5:5 6:5 7:3 8:2 9:2 10:4 11:7 12:3 13:3 14:4 15:5 16:5 
-0 -0 -0 -0 -0 -0.01616783799380031 0 0.2874745083333232 0 1:4 2:1 3:1 4:2 5:4 6:3 7:2 8:2 9:3 10:4 11:7 12:4 13:3 14:4 15:4 16:4 
-0 -0 -0.0120348735017446 -0 -0 -0 0 0 0 1:3 2:2 3:1 4:1 5:4 6:3 7:4 8:2 9:3 10:4 11:7 12:4 13:5 14:3 15:4 16:4 
-0.4113523043324144 -0 -0.01739757119631122 -0.1317348754840417 -0 -0.6441035665756504 0 1 1 1:4 2:2 3:1 4:2 5:4 6:3 7:2 8:2 9:2 10:4 11:7 12:3 13:3 14:4 15:3 16:6 
-0 -0 -0 -0 -0 -0 0 1 1 1:4 2:2 3:2 4:1 5:4 6:4 7:2 8:3 9:2 10:4 11:7 12:4 13:3 14:4 15:4 16:6 
-0 -0 -0 -0 -0 -0 0 0 0.328116048840148 1:3 2:2 3:1 4:1 5:4 6:4 7:2 8:3 9:3 10:4 11:7 12:4 13:3 14:5 15:3 16:5 
-0 -0 -0 -0 -0 -0 0 0.1139244938093059 0 1:3 2:2 3:1 4:2 5:4 6:3 7:3 8:2 9:2 10:4 11:7 12:4 13:4 14:3 15:3 16:5 
-0 -0 -0 -0 -0 -0 0 0.4714066988220469 0 1:4 2:2 3:1 4:1 5:4 6:3 7:2 8:3 9:3 10:4 11:7 12:4 13:4 14:3 15:3 16:6 
-0.7219720445532954 -0.4421073182999474 -0.4323014989752291 -0.3342419115283234 -0.4920245537383037 -0.4492606165986429 0.4081169565881249 1 0.6890956673858354 1:3 2:1 3:3 4:2 5:4 6:4 7:4 8:3 9:3 10:4 11:7 12:5 13:6 14:4 15:4 16:5 
-0 -0 -0 -0 -0 -0.6088218954865311 0 1 0.6316493483971811 1:3 2:2 3:1 4:3 5:4 6:3 7:2 8:2 9:3 10:4 11:7 12:5 13:4 14:3 15:4 16:4 
-0.3432788795691766 -0.1146894631604987 -0.356520844099701 -0.2741914595997612 -0.1810316523780101 -0.4397669204865893 0.125335286523521 1 0.6980694599741016 1:3 2:1 3:3 4:2 5:4 6:3 7:2 8:2 9:3 10:4 11:7 12:3 13:4 14:5 15:4 16:4 
-0 -0 -0 -0 -0 -0 0 0.1251308297802081 0 1:3 2:2 3:1 4:2 5:4 6:3 7:2 8:3 9:2 10:4 11:7 12:5 13:3 14:3 15:3 16:5 
-0.2234230843107208 -0 -0 -0 -0 -0 0 0 0 1:3 2:2 3:1 4:1 5:4 6:4 7:2 8:2 9:2 10:4 11:7 12:3 13:3 14:5 15:3 16:4 
-0 -0 -0 -0 -0 -0 0 0.8339575694938876 0 1:4 2:2 3:1 4:1 5:5 6:3 7:2 8:2 9:2 10:4 11:7 12:4 13:3 14:3 15:3 16:6 
-0.6097609990619174 -0.4987951155658334 -0.4376175154361856 -0.5126222429633293 -0.5515415262430721 -0.8296794252511087 0.4564280691799376 1 0.4583935465208741 1:3 2:3 3:1 4:2 5:5 6:3 7:2 8:3 9:3 10:4 11:7 12:3 13:3 14:3 15:7 16:6 
-0 -0 -0 -0 -0 -0 0 0.6410163000044138 0 1:3 2:2 3:2 4:1 5:5 6:4 7:3 8:2 9:2 10:4 11:7 12:4 13:3 14:4 15:5 16:5 
-0 -0.0798826034956388 -0.07753568183567841 -0.1109496578262358 -0.09361602342902255 -0 0.07050601563081413 0 0.2796083751501398 1:3 2:4 3:1 4:1 5:4 6:4 7:2 8:3 9:3 10:4 11:7 12:4 13:3 14:5 15:5 16:5 
-0 -0 -0.2851639008762957 -0 -0 -0 0 0 0 1:3 2:2 3:1 4:1 5:4 6:3 7:2 8:2 9:2 10:5 11:7 12:3 13:3 14:3 15:3 16:6 
-0.3306440041705438 -0.0966393311548685 -0.05765185699553205 -0.02039671519334729 -0.1063532233285041 -0 0.08944126732540027 0 1 1:3 2:3 3:1 4:1 5:5 6:4 7:2 8:2 9:2 10:4 11:7 12:3 13:5 14:3 15:3 16:6 
-0 -0 -0 -0.06672525471313416 -0 -0 -0 0 0.3655614045376566 1:4 3:1 4:1 5:1 7:1 9:1 11:1 13:3 14:2 15:2 16:1 
-0.3457522924212316 -0.6778533783008813 -0.4652977864100575 -0.2104573699303332 -0.2680551765808655 -0.408344383331678 -0.4367134114940487 0.588264587408558 0.5035432790849191 1:3 3:1 4:1 5:1 7:1 8:1 9:1 11:1 12:2 13:3 14:1 15:2 
-0.7801568978058354 -0.4284265206026949 -0.7563056853399351 -1 -0.744864636615008 -0.8863423409867468 -0.8564114384586304 0.8297401378515505 0.7763615274397542 1:3 2:2 5:1 9:1 11:1 12:2 14:2 15:2 
-0 -0 -0.03776654955714174 -0.1917542698458594 -0 -0 -0 0 0 1:3 2:1 5:1 7:1 9:1 11:1 12:1 13:2 14:1 15:1 16:1 
-0 -0 -0 -0 -0 -0 -0 0 0.03143399439297793 1:4 2:2 3:1 5:1 6:1 8:1 9:1 11:2 13:4 14:2 15:2 16:1 
-0.2735967884787122 -0.1100581944694406 -0.2256205195106114 -0.316372884942675 -0.07183470147664144 -0.3294452260647046 -0.2737830664890079 0.2650472218871952 0.2253314163736001 1:5 2:2 4:1 5:1 6:1 8:1 9:1 11:1 12:1 13:3 14:4 15:2 16:1 
-0.2342164193623893 -0.1125379572215149 -0.4464875539406333 -0.4316528581829438 -0.2564442382173705 -0.275549839814311 -0.3093363524937118 0.190291486342705 0.37629834450718 1:4 3:1 5:1 7:1 8:1 9:2 11:1 12:1 13:3 14:3 15:1 16:1 
-0.4485249350350731 -0.223759460153159 -0.2076492704363092 -0.2240700885066457 -0.420429214134193 -0.3790967611442334 -0.374122476249743 0.4350443837824315 0.2495227304707308 1:4 2:2 3:1 4:1 6:1 7:2 9:1 11:3 13:4 14:3 15:1 16:1 
-0 -0 -0 -0 -0 -0 -0 0 0.2182165611483431 1:4 2:1 3:1 4:1 5:1 6:1 7:1 9:1 11:2 13:4 14:2 15:2 16:1 
-0.4633712372407294 -0.5115982037839177 -0.9844727908881811 -0.6671093405949222 -0.3466515507710217 -0.7174194465126593 -0.5321655252851556 0.6006666527614823 0.8749815830168609 1:3 2:2 3:1 7:1 8:1 9:1 11:3 13:3 14:1 15:1 16:1 
-0.1972418956856588 -0.9323938590985055 -0.4944873950132444 -0.2343386100556544 -0.6065419699891508 -0.1593208003434018 -0.1117697554164087 0.1064746025223517 0.7500590750709037 1:2 2:1 4:1 7:1 9:1 11:1 12:1 13:2 14:1 15:1 
-0.2235088885002113 -0.5089780793509123 -0.06487954820401469 -0.09876744290039567 -0.5881679522689691 -0.0305058768282379 -0.1443601036893779 0.2269131523639677 0.04966845003650452 1:3 2:2 3:1 4:1 5:1 7:1 8:1 9:1 11:1 13:4 14:4 15:2 
-0 -0.08450598728099805 -0 -0 -0.04910280396701471 -0 -0 0 0.03131427686929952 1:6 2:2 3:2 4:3 5:1 6:1 7:1 8:2 9:2 10:1 11:4 12:2 13:7 14:4 15:3 16:1 
-0.5167051515609139 -0.4041400370278342 -0.4261410047005723 -0.4331141503160426 -0.4935958051557926 -0.4294837356590963 -0.4548007747783949 0.4408547013567966 0.4284942508480767 1:6 2:2 3:3 4:1 5:1 6:1 7:2 8:3 9:2 10:1 11:3 12:2 13:6 14:6 15:4 16:1 
-0.3660699174397559 -0.2228055388094268 -0.3608323088543198 -0.2897023728065067 -0.228098373645361 -0.3099434487086021 -0.2902715617421363 0.4101516682740877 0.2643826105499612 1:6 2:2 3:2 4:3 5:1 6:1 7:1 8:1 9:1 10:2 11:4 12:2 13:6 14:4 15:3 16:1 
-0.005890350380365263 -0 -0 -0 -0 -0 -0.001798762126946672 0.08478482711066376 0 1:6 2:2 3:1 4:1 5:1 6:1 7:2 8:2 9:1 11:4 12:1 13:5 14:3 15:3 16:1 
-0.09880521736105283 -0.1339172398595849 -0.06333362248963854 -0.01134170592446191 -0.1439858586308683 -0 -0.06682213580556441 0.007527044500238349 0.05258453121996047 1:6 2:2 3:2 4:3 5:2 6:1 7:1 8:1 9:1 11:3 12:1 13:7 14:3 15:4 16:1 
-0.2424623420742571 -0.2137005676803949 -0.2152185337745801 -0.2037919412655616 -0.2140000632724107 -0.1611574110959176 -0.1638153597858011 0.1546139387803107 0.1898448729284302 1:6 2:3 3:4 4:2 5:1 6:1 7:1 8:1 9:1 11:3 12:2 13:6 14:4 15:3 16:2 
-0.561746404970515 -0.4734596799513124 -0.5072178399277486 -0.5078885402702673 -0.5236776947971599 -0.4545642398631792 -0.4958301193526586 0.5517110077548232 0.466025582816222 1:6 2:2 3:1 4:1 5:1 6:2 7:3 8:2 9:1 10:2 11:2 12:3 13:6 14:4 15:5 16:1 
-0.5331668863041499 -0.4103692411352305 -0.4502087058011731 -0.4988244478332017 -0.4740329541186946 -0.4752765432987432 -0.5182578154095334 0.5840890435591776 0.5158181753297344 1:6 2:3 3:3 4:1 5:3 6:2 7:1 8:1 9:1 11:3 12:2 13:6 14:3 15:5 16:2 
-0.5214006413758081 -0.4845603070753041 -0.430133123138092 -0.3918874265561345 -0.476459218671802 -0.4469438195128495 -0.5152699661934617 0.5047163340316833 0.4237754347762462 1:6 2:2 3:1 4:1 5:3 6:1 7:1 8:1 9:3 10:1 11:2 12:3 13:7 14:4 15:3 16:1 
-0.07189534702433023 -0 -0.01422078192074668 -0.0359336468600714 -0.03204843602075119 -0.2321504355239343 -0.1745145640980781 0.15093860243103 0.07958209054421965 1:6 2:2 3:2 4:3 5:1 6:1 7:1 8:1 9:1 11:4 12:2 13:5 14:3 15:3 16:1 
-0 -0.01516958754905965 -0 -0 -0 -0 -0 0 0 1:6 2:3 3:2 4:1 5:1 6:2 7:1 8:1 9:1 10:2 11:3 12:2 13:7 14:4 15:3 16:1 
-0 -0.02730960252734684 -0 -0 -0 -0 -0 0 0 1:6 2:3 3:2 4:1 5:1 6:2 7:1 8:1 9:2 10:1 11:3 12:3 13:7 14:3 15:3 16:1 
-0.0897970916210037 -0.01109225579967046 -0.09815805156486571 -0.1749349808430505 -0.03046763173421002 -0.1164370509990412 -0.03488286074723806 0.07058371994207309 0.04530366975123601 1:6 2:2 3:1 4:3 5:1 6:1 7:1 8:1 9:2 10:1 11:2 12:1 13:6 14:4 15:4 16:2 
-0.8954141049159199 -0.7419905649038956 -1 -0.955702797727463 -1 -1 -0.7526641451818896 -0.921871730555986 1 1:2 2:1 3:1 4:2 5:2 6:1 7:1 9:1 10:3 11:3 12:2 13:3 14:3 15:2 16:1 
-1 -0.03838187026937907 -0.1231401000337366 -0.008472540718976797 -0.1530495872118647 -0 -1 -0 1 1:2 2:2 3:1 5:2 6:3 7:2 8:1 9:2 10:2 11:4 12:3 13:2 14:3 15:1 16:4 
-0.6698832742269692 -0.2250962478988908 -1 -0.1025045635321625 -0.2825697039164564 -1 -1 -0.08784368676650209 0.3236979084419026 1:1 2:2 4:2 5:2 6:1 7:1 8:2 9:1 10:3 11:4 12:3 13:1 14:2 15:1 16:4 
-0.5626958325059581 -0.3743445031442509 -1 -0 -0.3758941271924188 -0.97491448643873 -0.4930916413775998 -0.4303115767211875 0.1596052973975151 1:4 2:2 3:2 5:1 6:1 7:2 8:1 10:3 11:5 12:3 13:2 14:2 15:1 16:3 
-0 -0 -1 -0.9663282407478083 -0 -0.7095894317736902 -1 -0.1147342242975365 1 1:3 2:1 3:1 5:1 6:2 7:1 8:1 9:2 10:2 11:4 12:2 13:2 15:3 16:3 
-0.5743601535309126 -0.4514144864856185 -0.0065357744030016 -0.5568546589427948 -0.5277490353885296 -1 -1 -0.3483183363690944 0.7362589092553814 1:3 2:1 4:2 5:3 6:2 7:1 8:1 9:2 10:2 11:6 12:1 13:1 14:1 15:5 16:3 
-0.630465361072334 -0.2778750332568679 -0 -0.1899985074499959 -0.3838358693176958 -0.3004987084880521 -1 -0.5346751547340498 0.4938607313372398 1:3 2:1 3:1 5:3 6:2 7:1 8:2 9:2 10:2 11:5 12:1 13:4 14:1 15:4 16:2 
-0 -0 -0 -0 -0 -0 -0.4840232879149039 -0 0.1927926837811177 1:2 3:2 5:3 6:2 7:2 9:2 10:2 11:3 12:4 14:3 15:2 16:3 
-0.07000348678570631 -0 -0.0456494902857894 -0 -0 -0.5489606692313554 -1 -0 0 1:2 2:2 4:1 5:3 6:1 7:2 9:2 10:2 11:4 12:3 13:2 14:2 15:1 16:3 
-0.8590375252638961 -0.3738373186756888 -0.2697849176507858 -1 -0.4048622257834733 -1 -0.9288762941213911 -0.3559227775471482 0.6919452289525578 1:3 2:2 3:1 4:2 5:1 6:2 8:2 9:2 10:2 11:4 12:3 14:3 15:2 16:5 
-0 -0 -0 -0.4230840518096006 -0 -1 -1 -0 0 1:3 3:2 4:1 5:2 6:1 7:1 8:1 9:2 10:2 11:4 12:3 14:3 15:2 16:3 
-1 -0 -0.644459083021263 -0.8136614154896457 -0.1169514691357424 -1 -1 -0 1 1:2 2:1 3:1 4:2 5:2 6:1 7:1 9:2 10:2 11:4 12:2 13:2 14:3 15:1 16:2 
-0.1359505189307863 -0.1584434792606915 -0.8037837674491265 -1 -0.08582528526076237 -1 -0.6560162800009049 -0.2357908833611131 0.6583041385019618 1:3 3:2 5:2 6:1 7:1 8:2 9:2 10:2 11:3 12:3 13:2 14:1 15:2 16:4 
-0 -0 -0 -0 -0 -0 -1 -0 0 1:3 3:1 4:1 5:3 6:2 7:2 8:1 9:1 10:3 11:4 12:4 13:2 14:2 15:3 16:2 
-0.1824325285251621 -0.606661839151158 -0.5644792343868031 -0 -0.2048389983552965 -0.499863992639583 -1 -0.1304693695620111 0.8948778441423808 1:1 2:1 3:1 4:1 5:3 6:1 8:1 9:1 10:3 11:4 12:2 13:3 14:1 15:2 16:1 
-0 -0 -1 -1 -0 -0.3117845715169331 -0 -0 0 1:3 2:2 3:1 4:1 5:2 6:1 7:1 8:1 9:1 10:4 11:4 12:2 13:2 14:2 15:3 16:4 
-0 -0 -0.7662585418113355 -0.6697488732571998 -0.07452592967741759 -0.2729455233635368 -1 -0 0.1067367315742666 1:2 3:2 5:2 6:1 7:1 8:2 9:1 10:3 11:4 12:2 13:1 14:2 15:3 16:2 
-1 -0 -0 -0.02132073442280942 -0 -1 -1 -0 1 1:2 2:1 3:1 4:2 5:2 6:2 7:1 8:1 9:2 10:2 11:4 12:2 13:2 14:2 15:2 16:4 
-0.8021115750829184 -0.4559221393141153 -0.5971193823401475 -0.7507281021403799 -0.6734652191687361 -0.1106936291831197 -0.9989207352414962 -0.4335144254595123 1 1:2 3:2 5:3 6:2 7:2 9:2 10:2 11:3 12:4 14:3 15:2 16:3 
-0.02682789145363826 -0 -1 -1 -0 -0.6401449969949605 -0 -0 1 1:3 2:2 3:1 4:2 5:1 6:2 8:2 9:1 10:3 11:3 12:3 13:1 14:3 15:3 16:4 
-0.01324608849075289 -0.1130321119013248 -0.2992969072284821 -0.7692189701289646 -0.06668747979271641 -0.6204121973926504 -0.7136321492825097 -0.3715760027848467 0.2896465919954048 1:3 2:3 4:2 5:1 6:2 7:2 8:1 9:2 10:2 11:4 12:3 13:3 14:2 15:3 16:3 
-0 -0 -0 -0 -0 -0 -0.02950651630674231 -0 0.124589055974953 1:4 2:2 3:2 4:2 5:4 6:3 7:3 8:2 9:2 10:4 11:6 12:4 13:5 14:3 15:4 16:6 
-0 -0 -0 -0 -0 -1 -0 -0 0 1:5 2:2 3:2 4:2 5:4 6:2 7:2 8:2 9:2 10:4 11:7 12:4 13:3 14:3 15:4 16:6 
-0 -0 -0 -0 -0 -0 -1 -0 0 1:5 2:2 3:2 4:2 5:5 6:3 7:2 8:2 9:3 10:4 11:8 12:5 13:4 14:3 15:4 16:6 
-0 -0 -0 -0 -0 -0.347990506227608 -0 -0 0 1:4 2:2 3:2 4:4 5:4 6:3 7:2 8:3 9:2 10:4 11:7 12:5 13:4 14:3 15:5 16:6 
-0 -0 -0 -0 -0 -0 -1 -0 0 1:4 2:2 3:2 4:2 5:4 6:3 7:2 8:2 9:2 10:4 11:7 12:4 13:3 14:3 15:4 16:6 
-0 -0 -0 -0.5783983852840304 -0 -0 -0 -0 0 1:4 2:3 3:2 4:2 5:4 6:2 7:2 8:2 9:4 10:4 11:6 12:4 13:4 14:3 15:6 16:6 
-0 -0 -0 -0 -0 -1 -0 -0 0 1:5 2:2 3:2 4:4 5:4 6:2 7:2 8:2 9:3 10:4 11:7 12:5 13:3 14:4 15:5 16:6 
-0.1417231812781822 -0.182664930556775 -0.09376218101450315 -0 -0.1990096049318965 -0 -0 -0.16523973512922 0 1:5 2:2 3:2 4:2 5:4 6:2 7:3 8:3 9:3 10:5 11:8 12:6 13:3 14:3 15:5 16:6 
-0.4080759982418071 -0.3351101757446472 -0.02401145689211617 -0 -0.3731103154579995 -0 -0.2041765425364843 -0.3075889688196926 0 1:4 2:4 3:2 4:2 5:6 6:2 7:2 8:2 9:2 10:4 11:7 12:4 13:3 14:4 15:5 16:7 
-0 -0 -0 -0.6005803451439445 -0 -0 -0 -0 0 1:4 2:3 3:2 4:2 5:4 6:2 7:2 8:2 9:3 10:4 11:6 12:4 13:3 14:5 15:4 16:6 
-0.4702394042559202 -0.3343902484180068 -0.3281742067977366 -0.2630585803103137 -0.3780594905577607 -0.1661486051199461 -0 -0.3062087464248954 0 1:4 2:2 3:3 4:4 5:4 6:2 7:3 8:3 9:2 10:4 11:6 12:7 13:4 14:4 15:4 16:6 
-0 -0 -0 -0 -0 -0 -0 -0 1 1:4 2:3 3:2 4:3 5:4 6:3 7:2 8:2 9:2 10:4 11:6 12:5 13:4 14:3 15:4 16:7 
-0 -0 -0 -0.1204293498585307 -0 -0 -0 -0 0 1:4 2:2 3:2 4:2 5:4 6:2 7:3 8:2 9:2 10:5 11:6 12:4 13:3 14:3 15:5 16:7 
-0 -0 -0 -0 -0 -1 -0 -0 0 1:4 2:2 3:2 4:4 5:4 6:2 7:2 8:2 9:2 10:5 11:7 12:5 13:3 14:3 15:5 16:6 
-0 -0 -0.7860999515247677 -0 -0 -0 -0 -0 0 1:4 2:2 3:2 4:2 5:4 6:2 7:2 8:2 9:3 10:5 11:6 12:4 13:3 14:4 15:4 16:7 
-0 -0 -0 -0 -0 -0 -1 -0 1 1:4 2:2 3:2 4:2 5:4 6:3 7:2 8:2 9:3 10:4 11:6 12:4 13:4 14:4 15:4 16:6 
-0.0977684609649236 -0 -0 -0 -0 -0 -0.244291948198506 -0 1 1:4 2:2 3:2 4:2 5:4 6:4 7:2 8:2 9:3 10:4 11:6 12:4 13:3 14:4 15:5 16:7 
-0 -0 -0 -0 -0 -0 -0 -0 0.4725068107316215 1:4 2:3 3:4 4:2 5:4 6:3 7:2 8:2 9:2 10:4 11:6 12:6 13:4 14:4 15:4 16:6 
-0.203440110363416 -0.1089449430416783 -0 -0 -0.1219878070292654 -0 -0 -0.09627912630729413 0 1:4 2:2 3:2 4:3 5:5 6:2 7:2 8:2 9:3 10:5 11:6 12:5 13:4 14:3 15:4 16:8 
-0 -0 -0.0455072564517931 -0 -0 -0.5576866246061734 -0 -0 0 1:5 2:2 3:2 4:2 5:4 6:2 7:2 8:2 9:2 10:5 11:7 12:4 13:3 14:3 15:4 16:7 
-0 -0 -0 -0.2106598133818772 -0 -0 -0 -0 0 1:4 2:3 3:3 4:2 5:4 6:2 7:4 8:2 9:2 10:4 11:6 12:5 13:3 14:4 15:6 16:6 
-0 -0 -0 -0 -0 -0 -0.03595066977625679 -0 0 1:4 2:2 3:2 4:2 5:5 6:2 7:2 8:2 9:2 10:4 11:7 12:4 13:3 14:3 15:4 16:6 
-0.6848995125958287 -0.2369896579776254 -1 -1 -0.2659072038215487 -0.1456237576970086 -0.4725572301774464 -0.2122166382311886 0.7657942304836143 1:4 2:2 3:2 4:1 5:2 6:2 7:2 8:2 9:2 10:5 11:5 12:3 13:4 14:3 15:4 16:5 
-0 -0 -0 -0.0810071263652582 -0 -0 -0 -0 0 1:4 2:3 3:2 4:2 5:4 6:2 7:2 8:4 9:2 10:4 11:6 12:6 13:3 14:3 15:5 16:6 
-0 -0 -0 -0 -0 -0 -1 -0 0 1:4 2:2 3:2 4:2 5:4 6:3 7:2 8:2 9:2 10:4 11:7 12:4 13:3 14:3 15:4 16:6 
-0 -0 -0.1071213903747579 -0 -0 -0 -0 -0 0 1:4 2:3 3:3 4:2 5:4 6:2 7:2 8:2 9:2 10:5 11:7 12:4 13:3 14:3 15:6 16:6 
-0 -0 -0 -0 -0 -0.4413607899526551 -0 -0 0 1:4 2:2 3:2 4:4 5:4 6:2 7:2 8:2 9:2 10:4 11:6 12:5 13:3 14:3 15:5 16:6 
-0 -0 -0 -0 -0 -0 -1 -0 0 1:4 2:2 3:2 4:2 5:4 6:3 7:2 8:2 9:2 10:4 11:7 12:4 13:3 14:3 15:4 16:6 
-0 -0 -0 -0.2193247676867922 -0 -0 -0 -0 0 1:5 2:2 3:2 4:2 5:4 6:2 7:2 8:2 9:2 10:4 11:6 12:4 13:3 14:3 15:4 16:7 
-0 -0 -0 -0 -0 -0 -1 -0 0 1:4 2:2 3:2 4:2 5:4 6:3 7:3 8:2 9:2 10:5 11:8 12:5 13:3 14:3 15:4 16:6 
-0 -0 -0 -0 -0 -0 -0 -0 1 1:4 2:2 3:2 4:2 5:4 6:3 7:2 8:2 9:2 10:4 11:6 12:4 13:4 14:3 15:4 16:6 
-0 -0.01323963031279534 -0.03139773961341737 -0 -0.01884352208715917 -0 -0 -0.01406415646421397 0 1:5 2:2 3:4 4:2 5:4 6:2 7:2 8:2 9:2 10:5 11:7 12:5 13:3 14:3 15:5 16:7 
-0 -0.05364321605048758 -0 -0.3486137179648944 -0.05861597162753853 -0 -0 -0.04984938723478911 0 1:4 2:2 3:2 4:3 5:4 6:3 7:2 8:3 9:2 10:4 11:6 12:4 13:3 14:3 15:6 16:7 
-0 -0 -0 -0 -0 -0 -0 -0 0.1601375316497844 1:4 2:2 3:2 4:3 5:4 6:3 7:2 8:3 9:2 10:4 11:6 12:6 13:3 14:4 15:4 16:6 
-0 -0 -0 -0 -0 -0.002321202382398647 -0 -0 0 1:5 2:2 3:2 4:2 5:4 6:2 7:4 8:2 9:3 10:4 11:7 12:4 13:4 14:4 15:5 16:6 
-0.1765156628651564 -0 -0 -0 -0 -0 -0 -0 1 1:4 2:2 3:2 4:3 5:4 6:3 7:2 8:2 9:2 10:4 11:6 12:4 13:3 14:4 15:4 16:7 
-0.6548815574779833 -0.3820041576152055 -0.2973683039867012 -0.001523094833826034 -0.46194137066829 -0.2689175704768055 -0.7416556694391605 -0.349031110672957 0 1:4 2:2 3:2 4:2 5:5 6:2 7:5 8:3 9:2 10:4 11:7 12:4 13:4 14:5 15:5 16:6 
-0 -0 -0.04040938697888614 -0 -0 -0 -0 -0 0 1:4 2:3 3:2 4:2 5:4 6:2 7:2 8:2 9:2 10:5 11:6 12:5 13:3 14:3 15:4 16:7 
-0 -0 -0 -0 -0 -0 -0.3275370271998066 -0 0.2306202922926898 1:4 2:2 3:2 4:2 5:4 6:3 7:3 8:2 9:2 10:4 11:6 12:4 13:3 14:5 15:4 16:6 
-0 -0 -0.3005209211316951 -0.08906095069027926 -0 -0 -0 -0 0 1:4 2:2 3:2 4:2 5:4 6:2 7:2 8:2 9:2 10:5 11:6 12:4 13:3 14:3 15:4 16:7 
-0 -0 -0 -0 -0 -0 -1 -0 0 1:4 2:2 3:2 4:2 5:4 6:3 7:2 8:2 9:2 10:4 11:7 12:4 13:3 14:3 15:4 16:6 
-0.2286721547779661 -0 -0.216197921484149 -0.2852095856160134 -0 -0.05128253258956441 -1 -0.01171319824209327 0 1:4 2:2 3:2 4:2 5:4 6:2 7:3 8:4 9:3 10:4 11:6 12:4 13:5 14:5 15:4 16:6 
-0 -0 -0 -0.1164925859713948 -0 -0 -0 -0 0 1:4 2:2 3:4 4:2 5:4 6:2 7:2 8:2 9:2 10:4 11:6 12:5 13:3 14:3 15:5 16:6 
-0 -0 -0 -0 -0 -0 -1 -0 0 1:4 2:3 3:2 4:2 5:4 6:3 7:2 8:2 9:2 10:4 11:7 12:4 13:3 14:4 15:4 16:6 
-0 -0.04393473287443391 -0 -0 -0.05470115531718722 -0 -0 -0.04088773487087385 0.3912068793229045 1:4 2:2 3:2 4:3 5:4 6:3 7:2 8:2 9:4 10:4 11:6 12:5 13:3 14:4 15:6 16:6 
-0.5764472330185659 -0.3694799795259566 -0.4269269689855013 -0.1747106760401797 -0.4163868499589174 -0.1501908231661528 -0.123800144750235 -0.3486214895492282 0.5107518199020925 1:4 2:3 3:5 4:2 5:4 6:3 7:2 8:2 9:2 10:4 11:7 12:5 13:5 14:4 15:4 16:6 
-0 -0 -0 -0 -0 -0 -0.2317618729195592 -0 0 1:4 2:3 3:2 4:2 5:4 6:3 7:2 8:2 9:2 10:5 11:7 12:5 13:4 14:3 15:4 16:6 
-0 -0 -0 -0 -0 -0.06170203091170055 -0 -0 0 1:5 2:2 3:2 4:2 5:4 6:2 7:2 8:2 9:3 10:4 11:6 12:4 13:3 14:4 15:4 16:7 
-0 -0 -0 -0 -0 -0 -0 -0 1 1:4 2:2 3:2 4:2 5:4 6:3 7:2 8:2 9:2 10:4 11:6 12:4 13:3 14:3 15:4 16:7 
-0 -0 -0 -0 -0 -0 -1 -0 0 1:4 2:2 3:2 4:2 5:5 6:2 7:2 8:2 9:2 10:4 11:7 12:4 13:3 14:3 15:4 16:6 
-0.03328187946186356 -0 -0.1438274173641114 -0 -0 -0.7342443096628736 -0 -0 0 1:4 2:3 3:2 4:3 5:4 6:2 7:2 8:2 9:3 10:4 11:6 12:4 13:4 14:5 15:4 16:6 
-0 -0 -0 -0.3076065391178142 -0 -0 -0 -0 0 1:4 2:2 3:2 4:2 5:4 6:2 7:2 8:3 9:2 10:4 11:6 12:4 13:3 14:3 15:5 16:6 
-0 -0 -0 -0 -0 -0.3092406519620889 -0 -0 0 1:4 2:2 3:2 4:3 5:4 6:2 7:2 8:2 9:2 10:4 11:6 12:4 13:4 14:3 15:4 16:6 
-0.02101440653157164 -0 -0 -0 -0 -0 -0 -0 0 1:4 2:2 3:2 4:3 5:5 6:3 7:3 8:3 9:2 10:4 11:7 12:4 13:4 14:3 15:6 16:7 
-0.04696382433310869 -0.05049128336372791 -0 -0 -0.05288837785832339 -0 -0 -0.03792198176466111 1 1:4 2:2 3:3 4:2 5:4 6:4 7:2 8:2 9:2 10:4 11:7 12:4 13:3 14:3 15:5 16:7 
-0.3038904876313257 -0.3254578356800838 -0.2667100449351469 -0.1183366296426536 -0.3647765117978873 -0.4037796650466319 -0.6036111615598716 -0.2977626707910315 0.1821657834531233 1:4 2:2 3:2 4:2 5:4 6:2 7:2 8:3 9:5 10:4 11:6 12:5 13:5 14:3 15:5 16:6 
-0 -0 -0 -0 -0 -0 -0.2648464168154575 -0 0 1:4 2:3 3:2 4:2 5:5 6:2 7:2 8:2 9:2 10:4 11:7 12:4 13:3 14:4 15:4 16:6 
-0 -0 -0 -0.02001411746413957 -0 -0 -0 -0 0 1:4 2:3 3:2 4:2 5:4 6:2 7:2 8:2 9:2 10:4 11:6 12:4 13:3 14:3 15:5 16:6 
-0.5722763372300124 -0.9205916258347906 -0.9802509296763462 -0.6916945574576471 -1 -0.6026803051847104 -1 -0.5877668377002264 -0.5955312517556838 1:2 3:1 4:1 5:1 6:1 9:1 10:2 11:2 12:1 13:2 14:3 16:1 
-0 -1 -0.3178778702588709 -0 -0.4855325504650828 -0.03999074370280287 -0 -1 -0 1:2 3:1 4:1 5:1 6:1 9:1 10:1 11:2 13:3 14:1 15:1 16:1 
-0.9511112320310682 -0.1130774661253705 -0.7534773952050311 -1 -0.4678037236960745 -0.7352090405526807 -0.716587499450785 -0.2661656208322865 -1 1:2 2:1 3:2 4:1 5:2 6:1 8:1 9:1 10:2 11:2 12:1 13:1 14:4 15:2 16:3 
-0.4529397860684394 -0.4333107187575104 -1 -1 -0.9766382994394083 -1 -0.7780911985535464 -0.3009142011443933 -1 1:1 2:2 3:2 4:1 5:1 6:1 7:1 9:1 10:2 11:3 12:2 14:3 15:1 16:3 
-0.4901920535216712 -0.07965934336558667 -0 -0.3107410832868798 -0.02260092404917942 -1 -1 -0.6651068460221131 -1 1:3 2:1 3:1 4:1 5:2 6:2 8:1 9:2 11:4 12:1 13:2 14:1 15:2 16:3 
-0.5728539259156931 -0.4426845563711568 -0.4497633187270887 -0.5150201913223282 -0.4624650273848039 -0.5102514678945597 -1 -0.3135806782187024 -1 1:2 2:1 3:2 4:1 5:2 6:4 7:1 9:2 10:2 11:4 12:3 13:2 14:1 15:4 16:3 
-0 -0 -1 -1 -0 -0.9196997070723864 -0 -0.5757691348907817 -0.2460563878028288 1:2 3:1 4:1 5:1 6:1 9:1 10:2 11:2 12:1 13:2 14:2 15:1 16:1 
-0.6674383522617816 -0.5537484509249326 -0.08980337591201318 -0.2034389125782073 -0.4836154547188053 -0.3613046385839297 -0.02454098507420352 -0.2086271762371066 -0.5823781982869862 1:1 3:2 4:2 5:2 6:2 7:1 8:1 9:1 10:1 11:2 12:2 13:3 15:2 16:4 
-0.6084552288499274 -0 -0 -0.4634528085364432 -0.31141736942341 -0 -0.784510797701089 -0 -0.5540548131932428 1:1 3:1 4:1 5:2 6:2 8:1 9:2 10:1 11:3 13:3 14:1 15:2 16:2 
-1 -0.07035771148739628 -0.2131269516837975 -0.9851295511509311 -0.08017711209325323 -0.1549987377680736 -0.7674945105201548 -0.1898412525843998 -1 1:2 2:2 3:2 4:1 5:2 6:2 7:2 9:1 10:1 11:3 12:2 13:1 14:3 15:2 16:4 
-0 -0 -1 -0.6217165778624448 -0 -1 -1 -0 -1 1:2 2:1 3:1 4:1 5:2 6:2 8:1 9:1 10:2 11:3 12:2 13:2 14:1 15:2 16:3 
-0 -0.05456049117165027 -0.9732707765770349 -1 -0 -0.1129060149464987 -0 -0.2800376881585299 -0 1:2 2:1 3:1 4:1 5:1 6:2 8:1 9:1 10:1 11:2 12:2 13:2 15:2 16:3 
-0.02115598311204158 -0.08067059494407824 -0 -0 -0.1422113637532711 -0 -0.2047335836454892 -0 -0.3343004120787874 1:2 2:1 4:2 5:2 6:3 8:1 9:1 10:1 11:2 12:2 13:2 14:2 15:2 16:3 
-1 -0 -1 -1 -0.01424521738307828 -1 -1 -0 -1 1:2 2:1 4:2 5:1 6:2 7:1 9:2 10:2 11:3 12:2 13:2 14:2 15:1 16:3 
-0 -0 -0 -0.5153215425414713 -0 -0 -0 -0 -0 1:4 2:2 3:3 4:2 5:3 6:4 7:1 8:1 9:2 10:3 11:4 12:3 13:3 14:4 15:5 16:6 
-0.2704792912913174 -0.3160060468579308 -0.3924637032915377 -0.3064897254156642 -0.3387389621367968 -0.1716272751790461 -0 -0.3031151747512144 -0 1:3 2:3 3:3 4:3 5:3 6:4 7:1 8:1 9:1 10:3 11:4 12:6 13:3 14:3 15:3 16:6 
-0.01609851327218203 -0 -0 -0 -0 -0 -0 -0 -0 1:3 2:2 3:2 4:2 5:3 6:5 7:1 8:1 9:3 10:4 11:7 12:3 13:3 14:4 15:3 16:6 
-0 -0 -0 -0 -0 -0 -0.6243153084113291 -0 -0.446000691421742 1:3 2:2 3:2 4:2 5:3 6:4 7:2 8:1 9:3 10:4 11:6 12:4 13:3 14:4 15:3 16:6 
-0.2957708135853268 -0.03385340729218029 -0 -0 -0.05472800876262397 -0 -0.2820188362588018 -0.02357821385767101 -0 1:3 2:2 3:2 4:2 5:3 6:5 7:3 8:1 9:1 10:3 11:6 12:3 13:3 14:4 15:3 16:6 
-0.2379620822249232 -0.3394901319604322 -0.9744054734080645 -0.4040286603536062 -0.3722940539716542 -0.5993532459878569 -0.7095250014551738 -0.3173361837751167 -1 1:3 2:2 3:2 4:2 5:3 6:4 7:1 8:1 9:2 10:6 11:6 12:3 13:3 14:3 15:4 16:7 
-0.1550960611785914 -0 -0 -0.1606996567488692 -0 -0.3652000170590667 -0 -0 -0 1:3 2:2 3:2 4:3 5:3 6:4 7:1 8:2 9:4 10:3 11:6 12:3 13:4 14:4 15:4 16:6 
-0.1460022384182368 -0.207640524098692 -0.6984592281365123 -1 -0.2216504783315787 -0.5019272945207688 -0.3936043141999503 -0.2095968696383323 -0.9837241355710782 1:4 2:2 3:2 4:2 5:3 6:4 7:1 8:2 9:1 10:4 11:4 12:3 13:3 14:3 15:6 16:6 
-0.171011497668482 -0.2580270008645063 -0 -0 -0.2892254970431371 -0 -0 -0.2219460027777841 -0 1:3 2:3 3:3 4:3 5:3 6:5 7:1 8:1 9:2 10:3 11:4 12:3 13:4 14:3 15:6 16:7 
-0 -0 -0 -0 -0 -0 -0 -0 -0.1139071807062401 1:4 2:3 3:3 4:2 5:3 6:4 7:1 8:1 9:2 10:3 11:5 12:3 13:3 14:3 15:4 16:8 
-0 -0 -0 -0 -0 -0 -0.1708086735296897 -0 -0.9730952947372941 1:3 2:2 3:2 4:2 5:4 6:4 7:2 8:2 9:1 10:3 11:5 12:4 13:3 14:3 15:4 16:6 
-0.4448358285156526 -0.2964377433545247 -0.4095358251687566 -0.1749092033239626 -0.3321423325877314 -0.6056161054121201 -0.2240479551024469 -0.2834346231982893 -0.7425613451447087 1:3 2:3 3:3 4:4 5:4 6:4 7:1 8:1 9:2 10:4 11:6 12:4 13:5 14:5 15:3 16:6 
-0 -0.05985434322431459 -0.00982256231038529 -0 -0.06728277237248209 -0.1689281988428586 -0 -0.122355331821804 -0 1:5 2:3 3:2 4:2 5:3 6:5 7:1 8:1 9:1 10:3 11:5 12:3 13:4 14:3 15:5 16:6 
-0.3902908355284928 -0 -0 -0 -0 -0 -0 -0 -0 1:3 2:2 3:2 4:2 5:4 6:4 7:2 8:1 9:1 10:3 11:4 12:3 13:5 14:3 15:3 16:6 
-0 -0.1403724967132065 -0.09133944676985548 -0.01518513178387728 -0.1520838215446411 -0.06869801479522511 -0 -0.114451730908513 -0.6705082061897175 1:3 2:3 3:2 4:2 5:4 6:4 7:2 8:1 9:2 10:4 11:4 12:5 13:4 14:3 15:3 16:8 
-0 -0 -0 -0 -0 -0 -1 -0 -0.6268502563434305 1:3 2:2 3:2 4:2 5:4 6:4 7:1 8:3 9:2 10:3 11:6 12:4 13:4 14:3 15:3 16:6 
-0.001389509207990291 -0.04314479086151312 -0.2365962518580337 -0.2770288379598671 -0.05046360251042013 -0 -0 -0.04931325718595256 -0.1308876361770026 1:3 2:3 3:2 4:2 5:3 6:4 7:3 8:2 9:1 10:3 11:4 12:4 13:4 14:4 15:3 16:7 
-0 -0 -0 -0 -0 -0 -0 -0 -1 1:4 2:2 3:2 4:2 5:3 6:4 7:2 8:1 9:3 10:3 11:5 12:5 13:3 14:3 15:4 16:6 
-0 -0.1499720526868078 -0 -0 -0.1414062076510814 -0.0730264826472059 -0.8061951765651192 -0.1184874274216132 -0 1:4 2:2 3:2 4:2 5:4 6:5 7:1 8:1 9:2 10:3 11:7 12:3 13:3 14:4 15:3 16:6 
-0.2285635409972224 -0.1743909656528829 -0.258871082758184 -0.1521863467828221 -0.1923771412361293 -0 -0 -0.1750079555436523 -0 1:3 2:3 3:2 4:2 5:4 6:4 7:1 8:1 9:4 10:3 11:5 12:4 13:4 14:5 15:3 16:6 
-0 -0 -0 -0.308976696105922 -0 -0 -0 -0 -0 1:3 2:2 3:2 4:2 5:3 6:4 7:1 8:1 9:1 10:5 11:4 12:3 13:3 14:3 15:4 16:7 
-0.3775502004930482 -0.3397689908175338 -0.399111641985468 -0.4301535757455434 -0.3798089267323769 -0.7342416244906088 -0.9817434365075771 -0.3420473081010763 -1 1:4 2:2 3:2 4:3 5:4 6:4 7:3 8:1 9:3 10:3 11:5 12:5 13:5 14:3 15:5 16:6 
-0 -0 -0.02616086916050316 -0.2509368243932674 -0 -0 -0 -0.003171660714888084 -0.05377476084730775 1:3 2:3 3:3 4:2 5:4 6:4 7:1 8:2 9:3 10:3 11:4 12:5 13:5 14:4 15:4 16:6 
-1 -0.2479854737141153 -0.4085610327793072 -0.4631349502395228 -0.3074532817683797 -0.1215331438167376 -1 -0.2364748953091496 -1 1:3 2:2 3:2 4:2 5:3 6:4 7:2 8:3 9:2 10:3 11:6 12:3 13:3 14:5 15:3 16:6 
-0.3690297025320443 -0 -0 -0 -0 -1 -0.3657000254639435 -0 -1 1:4 2:2 3:2 4:3 5:3 6:4 7:1 8:2 9:2 10:3 11:7 12:4 13:3 14:3 15:3 16:6 
-0 -0 -0 -0 -0 -0.02465718770322533 -1 -0 -1 1:4 2:2 3:2 4:2 5:4 6:4 7:1 8:2 9:3 10:4 11:6 12:4 13:4 14:4 15:4 16:6 
-0 -0 -0 -0 -0 -0 -0 -0 -0.3318678989344613 1:4 2:2 3:3 4:2 5:4 6:4 7:1 8:1 9:2 10:3 11:6 12:4 13:3 14:4 15:3 16:6 
-0.5722417333809435 -0 -0 -0 -0 -0.1284889357104651 -0 -0 -0 1:3 2:2 3:2 4:3 5:4 6:4 7:1 8:1 9:1 10:3 11:4 12:3 13:3 14:5 15:3 16:6 
-0 -0.01501110856292979 -0.05264920323865029 -0.1572018297076666 -0.01725053772408403 -0 -0.229198750964572 -0.009977790919220811 -1 1:3 2:2 3:3 4:2 5:3 6:4 7:1 8:2 9:3 10:5 11:6 12:4 13:3 14:3 15:5 16:7 
-0.4279800924647915 -0 -0 -0 -0 -0 -0 -0 -0 1:3 2:2 3:2 4:2 5:3 6:4 7:1 8:1 9:2 10:4 11:4 12:3 13:3 14:3 15:3 16:8 
